tree
version=v2
num_class=1
num_tree_per_iteration=1
label_index=0
max_feature_idx=199
objective=binary sigmoid:1
feature_names=var_0 var_1 var_2 var_3 var_4 var_5 var_6 var_7 var_8 var_9 var_10 var_11 var_12 var_13 var_14 var_15 var_16 var_17 var_18 var_19 var_20 var_21 var_22 var_23 var_24 var_25 var_26 var_27 var_28 var_29 var_30 var_31 var_32 var_33 var_34 var_35 var_36 var_37 var_38 var_39 var_40 var_41 var_42 var_43 var_44 var_45 var_46 var_47 var_48 var_49 var_50 var_51 var_52 var_53 var_54 var_55 var_56 var_57 var_58 var_59 var_60 var_61 var_62 var_63 var_64 var_65 var_66 var_67 var_68 var_69 var_70 var_71 var_72 var_73 var_74 var_75 var_76 var_77 var_78 var_79 var_80 var_81 var_82 var_83 var_84 var_85 var_86 var_87 var_88 var_89 var_90 var_91 var_92 var_93 var_94 var_95 var_96 var_97 var_98 var_99 var_100 var_101 var_102 var_103 var_104 var_105 var_106 var_107 var_108 var_109 var_110 var_111 var_112 var_113 var_114 var_115 var_116 var_117 var_118 var_119 var_120 var_121 var_122 var_123 var_124 var_125 var_126 var_127 var_128 var_129 var_130 var_131 var_132 var_133 var_134 var_135 var_136 var_137 var_138 var_139 var_140 var_141 var_142 var_143 var_144 var_145 var_146 var_147 var_148 var_149 var_150 var_151 var_152 var_153 var_154 var_155 var_156 var_157 var_158 var_159 var_160 var_161 var_162 var_163 var_164 var_165 var_166 var_167 var_168 var_169 var_170 var_171 var_172 var_173 var_174 var_175 var_176 var_177 var_178 var_179 var_180 var_181 var_182 var_183 var_184 var_185 var_186 var_187 var_188 var_189 var_190 var_191 var_192 var_193 var_194 var_195 var_196 var_197 var_198 var_199
feature_infos=[0.40839999999999999:20.315000000000001] [-15.0434:10.376799999999999] [2.1171000000000002:19.352999999999998] [0.016199999999999999:12.9773] [5.4901999999999997:16.671399999999998] [-32.562600000000003:17.2516] [2.3473000000000002:8.4476999999999993] [5.3497000000000003:27.691800000000001] [-10.5055:10.151300000000001] [3.9704999999999999:11.1365] [-20.731300000000001:17.475300000000001] [-26.094999999999999:16.851700000000001] [13.4346:14.654500000000001] [-4.9874000000000001:22.331499999999998] [1.0133000000000001:14.9377] [13.2339:15.7667] [0.6351:16.924800000000001] [-33.380200000000002:19.0259] [-10.664199999999999:41.748000000000005] [-11.557600000000001:35.183] [-3.3711000000000002:30.848199999999999] [-10.089:49.0443] [-5.3224999999999998:14.5945] [1.2442:4.8752000000000004] [-0.6784:25.445999999999998] [12.720000000000001:14.6546] [-24.243099999999998:15.6751] [-6.1668000000000003:3.2431000000000001] [2.7989000000000002:8.7873999999999999] [-4.7872000000000003:13.1431] [-34.798400000000001:15.6515] [2.1406000000000001:20.171900000000001] [-8.9861000000000004:6.7073999999999998] [1.5085:29.546600000000002] [9.8169000000000004:13.287800000000001] [-16.5136:21.5289] [-8.0951000000000004:14.2456] [-1.1834:11.863799999999999] [-6.3371000000000004:29.823499999999999] [-13.9863:15.3223] [-35.2117:18.105599999999999] [-7.8236999999999997:26.165800000000001] [8.859:13.4696] [10.6571:12.5779] [-9.5915999999999997:29.669] [-83.107500000000002:62.084400000000002] [1.2061999999999999:21.293900000000001] [-44.321999999999996:19.6435] [-23.902200000000001:54.273800000000001] [-8.0707000000000004:41.152999999999999] [10.3855:15.3172] [-13.247299999999999:40.689] [-24.721399999999999:15.9695] [3.3449:8.2315000000000005] [-26.778600000000001:28.572399999999998] [-3.0329999999999999:28.796099999999999] [2.7618:29.074100000000001] [3.4422999999999999:9.1608999999999998] [-12.600899999999999:20.4833] [6.3959000000000001:11.986700000000001] [-2.1006:25.195499999999999] [-48.802700000000002:27.102900000000002] [-6.3289:7.7535999999999996] [-10.554399999999999:11.2317] [1.724:11.153700000000001] [-13.7212:15.731299999999999] [1.7539:9.6189999999999998] [-19.5443:39.305599999999998] [4.9938000000000002:5.0457999999999998] [-16.099499999999999:8.5472999999999999] [-17.0275:64.464399999999998] [-0.21790000000000001:1.5354000000000001] [-12.3834:14.15] [-1.0664:44.536099999999998] [-34.101500000000001:70.271999999999991] [-0.69089999999999996:35.907499999999999] [-21.633299999999998:34.435200000000002] [7.4257:30.956900000000001] [-1.2542:11.3507] [10.445399999999999:18.2256] [-18.042200000000001:30.476900000000001] [7.5865:23.132400000000001] [-30.026599999999998:21.256] [-24.220099999999999:26.6568] [-24.439800000000002:17.7424] [7.0229999999999997:32.9011] [-19.272200000000002:34.273099999999999] [-8.4816000000000003:32.099000000000004] [1.5868:17.459399999999999] [-9.6013999999999999:15.4816] [-61.718000000000004:27.2713] [6.5217999999999998:7.4894999999999996] [-1.0185:26.997599999999998] [8.4916:12.5343] [2.819:18.975000000000001] [-2.4323999999999999:1.7785] [-12.1584:40.880600000000001] [-21.739999999999998:58.2879] [-0.60350000000000004:4.5027999999999997] [-7.2805999999999997:5.0763999999999996] [-39.179099999999998:25.140899999999998] [0.075700000000000003:28.459399999999999] [-7.3829000000000002:51.326500000000003] [0.97929999999999995:2.1886999999999999] [4.0846:19.020600000000002] [0.71530000000000005:7.1692] [0.94240000000000002:15.307399999999999] [-5.8979999999999997:46.3795] [13.7332:14.743] [5.7697000000000003:32.059100000000001] [-9.2398000000000007:19.519300000000001] [2.1941999999999999:9.8002000000000002] [-2.0301999999999998:8.4316999999999993] [-5.5138999999999996:21.542100000000001] [-0.050500000000000003:6.3997000000000002] [-6.7462:11.9335] [-2.9289999999999998:7.5674999999999999] [-31.8369:62.9512] [-37.527700000000003:24.648900000000001] [-9.7742000000000004:15.5472] [-18.093:70.869100000000003] [6.3558000000000003:16.976600000000001] [-15.194000000000001:18.471399999999999] [-12.405900000000001:26.430800000000001] [-7.0537999999999998:14.9915] [11.4861:13.664199999999999] [11.2654:15.510899999999999] [-8.8768999999999991:10.5976] [-11.7559:8.8225999999999996] [2.1863000000000001:31.203600000000002] [9.5282999999999998:14.879799999999999] [-0.95479999999999998:2.1922999999999999] [2.8900000000000001:12.465] [5.3593000000000002:8.3091000000000008] [-24.2546:12.723599999999999] [-30.0838:21.412800000000001] [-9.9492999999999991:54.5794] [-9.0198999999999998:44.437600000000003] [-16.468399999999999:18.8187] [-21.2743:36.097099999999998] [-15.4595:21.1219] [-16.6937:23.965800000000002] [-7.1079999999999997:32.891100000000002] [2.8068:22.691600000000001] [5.4443000000000001:11.8101] [-8.2734000000000005:16.008299999999998] [0.4274:20.4373] [-29.802299999999999:22.1494] [3.3205:4.7237999999999998] [-41.168300000000002:48.423999999999999] [9.6923999999999992:25.126100000000001] [-2.1915:21.124500000000001] [-2.8799999999999999:18.384599999999999] [11.030799999999999:24.0075] [-7.4225000000000003:23.242799999999999] [-21.840900000000001:16.831600000000002] [9.9964999999999993:16.497] [-22.990400000000001:11.972099999999999] [-4.5544000000000002:44.779499999999999] [-4.6416000000000004:25.120000000000001] [-5.9992000000000001:58.394199999999998] [4.8525999999999998:6.2949999999999999] [0.62309999999999999:10.134399999999999] [-5.9879999999999995:27.564800000000002] [-19.997699999999998:12.119300000000001] [3.8167:38.3322] [1.8512:4.1819999999999995] [-35.969499999999996:21.276599999999998] [-5.1837999999999997:14.886100000000001] [4.2587999999999999:7.0889999999999995] [-14.505999999999998:16.7319] [-19.781099999999999:17.917300000000001] [-11.4533:52.778399999999998] [-22.748699999999999:18.855399999999999] [-2.3742999999999999:43.546799999999998] [3.2414999999999998:20.854800000000001] [-29.116499999999998:20.245200000000001] [4.9520999999999997:20.596499999999999] [-28.7639:29.8413] [-7.8560999999999996:13.153600000000001] [-22.037400000000002:12.750500000000001] [5.4165000000000001:14.3606] [-26.001100000000001:29.248699999999999] [-4.8082000000000003:23.704899999999999] [-18.489699999999999:44.363399999999999] [-22.583300000000001:12.9975] [-2.4767999999999999:21.7392] [-47.753599999999999:22.786100000000001] [4.4652000000000003:28.656600000000001] [-2.3117000000000001:4.0340999999999996] [-14.093299999999999:18.440899999999999] [-2.6917:16.7165] [-3.8144999999999998:8.4024000000000001] [-10.845499999999999:18.2818] [8.6943999999999999:27.928799999999999] [-5.2610000000000001:4.2728999999999999] [-14.2096:18.3215] [5.9606000000000003:12.000400000000001] [6.2992999999999997:26.0791] [-38.852800000000002:28.500699999999998]
tree_sizes=2499 2500 2494 2508 2509 2510 2500 2528 2537 2553 2573 2559 2572 2565 2552 2587 2577 2579 2561 2584 2569 2577 2572 2583 2583 2582 2583 2604 2591 2601 2575 2585 2592 2573 2595 2572 2589 2594 2615 2615 2584 2608 2586 2607 2591 2607 2591 2605 2601 2612 2601 2613 2605 2631 2627 2609 2599 2619 2608 2609 2599 2617 2604 2616 2608 2597 2602 2623 2607 2604 2595 2588 2609 2604 2590 2591 2621 2603 2624 2619 2613 2618 2614 2607 2616 2622 2615 2588 2609 2596 2608 2611 2617 2609 2611 2609 2615 2618 2623 2626

Tree=0
num_leaves=31
num_cat=0
split_feature=139 110 146 26 12 148 174 166 110 146 26 190 139 174 164 133 164 12 6 166 13 190 107 6 122 106 6 154 107 192
split_gain=5718.73 3383.73 2753.27 2497.28 2306.54 1517.13 1327.2 1308.93 1297.6 1128.28 1140.83 1097.86 916.927 910.956 779.113 775.013 655.773 652.828 656.648 648.552 581.184 575.119 539.938 519.737 500.131 520.055 488.181 454.077 443.96 431.875
threshold=2.8053500000000002 9.5817500000000013 6.6186500000000006 3.1369500000000006 13.759050000000002 3.8569500000000003 9.9515000000000011 2.3828500000000004 8.8906000000000009 6.2794500000000006 3.5593500000000007 8.6178500000000025 -5.8211999999999993 9.0748500000000014 7.2449000000000003 7.2044500000000005 6.9105000000000008 13.878150000000002 5.8567500000000008 2.3402500000000006 1.0000000180025095e-35 8.6178500000000025 5.7323500000000012 5.5576500000000006 -2.2067499999999995 11.937950000000003 6.4959500000000014 7.8885500000000013 13.149900000000002 1.42425
decision_type=2 2 2 2 2 2 2 2 2 2 2 2 2 2 2 2 2 2 2 2 2 2 2 2 2 2 2 2 2 2
left_child=6 2 -2 4 -4 24 -1 -7 9 -8 12 13 -11 -9 20 17 19 -3 29 -14 -15 23 -22 28 -6 -26 -5 -24 -21 -19
right_child=1 15 3 26 5 7 8 11 -10 10 -12 -13 16 14 -16 -17 -18 18 -20 21 22 -23 27 -25 25 -27 -28 -29 -30 -31
leaf_value=-1.8391207368924829 -1.9142228612510694 -1.8873664454040739 -1.9375179522295676 -1.9572732923455527 -1.9547354415000078 -1.9542111253071617 -1.8474660975776525 -1.9778293451482896 -1.8784429418533839 -1.910185000866929 -1.8742842297759656 -1.998407896067951 -1.8767563970236574 -1.9812673021794709 -1.9508235999978814 -1.8594410524805067 -1.855087264351662 -1.9505058488098674 -1.9137874625814997 -1.9905020776053288 -2.0068784210453448 -1.9318544811673299 -2.0848659609978504 -1.9837559874281412 -2.0276878296520549 -1.882774469365698 -1.8556294937217053 -2.1298945215630365 -2.0756204427694924 -2.0383456816436003
leaf_count=1625 3601 1619 3300 4577 2646 1618 988 1292 3851 2377 1527 3271 476 714 586 1362 355 1414 1792 1495 1049 1262 11103 3878 6711 304 572 8551 3675 2408
internal_value=0 3.95231 3.66466 3.46512 3.21916 3.00234 5.38377 2.65848 5.18808 4.85721 4.65738 2.48727 4.39127 2.25168 2.09588 5.27249 4.05357 4.91861 4.47814 3.91136 1.98907 3.7452 1.88754 3.4861 3.866 3.47284 4.99973 1.76653 2.89129 3.81856
internal_count=79999 58490 49895 46294 41145 37845 21509 28184 19884 16033 15045 26566 13518 23295 22003 8595 11141 7233 5614 10786 21417 10310 20703 9048 9661 7015 5149 19654 5170 3822
shrinkage=1


Tree=1
num_leaves=31
num_cat=0
split_feature=81 12 21 6 99 22 139 148 12 198 166 133 133 40 76 13 190 170 22 133 34 34 139 91 198 154 190 198 154 40
split_gain=6249.44 2737.73 2235.88 1940.23 1781.07 1531.79 1433.6 936.896 814.813 775.412 677.473 638.074 596.165 536.94 525.551 506.156 503.7 503.387 497.531 481.979 458.23 443.953 420.181 406.116 391.325 356.372 398.45 347.638 347.179 340.775
threshold=11.985550000000002 13.878150000000002 6.9142500000000009 6.6189500000000008 2.0135500000000004 9.1850000000000005 3.3681500000000004 3.7197500000000008 13.727650000000002 12.287350000000002 2.3228500000000003 7.1921500000000007 7.4772500000000006 6.4787000000000008 -0.8768499999999998 0.81585000000000008 9.4184500000000018 4.1776500000000008 4.6801500000000011 7.2515500000000008 10.870450000000002 10.618350000000001 5.1832000000000003 7.2183500000000009 15.744100000000001 2.1921000000000004 6.929050000000001 11.941500000000001 -1.7531999999999999 6.191250000000001
decision_type=2 2 2 2 2 2 2 2 2 2 2 2 2 2 2 2 2 2 2 2 2 2 2 2 2 2 2 2 2 2
left_child=18 8 19 4 5 6 13 -8 -2 -9 -11 14 20 15 -10 -4 22 23 27 21 -12 -3 -16 24 -17 26 -22 -1 -23 -30
right_child=1 2 3 -5 -6 -7 7 9 11 10 12 -13 -14 -15 16 17 -18 -19 -20 -21 25 28 -24 -25 -26 -27 -28 -29 29 -31
leaf_value=0.28768149657280717 0.23339838801724555 0.28782729444702776 0.23251587249231431 0.20509535585625957 0.20551597059503016 0.21445633689265464 0.16346934841892646 0.14809495732688657 0.21617202452143403 0.17303605098509492 0.1120293007839519 0.23544829848729887 0.16716845693577537 0.23264457796742255 0.17610373977453328 0.13780580165346051 0.23198635397014009 0.18561107223867829 0.26861776891760997 0.27412619334284943 0.070133413260031252 0.29034529075309806 0.11584028132629827 0.20323814399142204 0.082370819108913806 0.049249786106759369 0.17539115726959381 0.21330751528730807 0.16348058976453256 0.26545890266510036
leaf_count=574 4421 355 538 4272 3224 1841 2596 2835 1921 935 3294 1769 883 665 2497 3713 690 1735 4443 755 2459 214 4354 578 4065 14382 658 4749 4257 327
internal_value=0 3.21665 2.94069 2.74897 2.57419 2.41463 2.29049 1.94623 3.98669 1.77301 1.59256 3.63481 1.477 2.96501 3.36978 2.81252 3.06323 2.66858 4.93512 4.17029 1.36892 3.88319 2.82837 2.39674 2.22378 1.18073 1.97317 4.48573 3.65743 3.48502
internal_count=79999 70233 54581 48673 44401 41177 39336 28042 15652 25446 22611 11231 21676 11294 9462 10629 7541 10091 9766 5908 20793 5153 6851 8356 7778 17499 3117 5323 4798 4584
shrinkage=0.05


Tree=2
num_leaves=31
num_cat=0
split_feature=81 26 139 76 80 108 190 1 2 148 174 22 165 80 115 169 76 177 81 139 80 22 92 123 1 2 147 157 190 115
split_gain=3695.44 1983.44 1772.35 1393.92 1045.49 947.49 846.523 798.196 688.012 663.195 574.12 517.765 510.671 468.788 436.045 413.233 404.79 395.662 385.636 387.582 378.816 367.575 336.095 331.601 325.635 344.959 291.56 286.065 280.46 279.782
threshold=12.229350000000002 4.1934500000000012 2.8053500000000002 0.68565000000000009 -7.6063499999999991 13.923750000000002 9.7814500000000013 4.5824500000000006 13.271050000000001 3.7722500000000005 15.830000000000002 8.4441000000000006 10.761050000000003 -3.8424499999999995 1.44025 5.0801500000000006 -3.2118499999999996 7.8255500000000007 10.438550000000001 1.8662000000000003 4.4180500000000009 10.214850000000002 6.1655000000000006 -0.62484999999999991 6.3896000000000006 15.867150000000002 7.1890500000000008 2.7199000000000004 5.8902500000000009 0.52705000000000013
decision_type=2 2 2 2 2 2 2 2 2 2 2 2 2 2 2 2 2 2 2 2 2 2 2 2 2 2 2 2 2 2
left_child=12 2 8 11 -5 -6 7 9 14 22 -11 17 -1 -14 -2 -12 -15 -4 -18 -20 -16 23 -7 -17 25 27 -25 28 -19 -21
right_child=1 -3 3 4 5 6 -8 -9 -10 10 15 -13 13 16 20 21 18 24 19 29 -22 -23 -24 26 -26 -27 -28 -29 -30 -31
leaf_value=0.25636075600717001 0.16555536161454376 0.18602716578504552 0.21582793547617374 0.18619229926629083 0.17799517153197916 0.22464426986976724 0.15019395160567969 0.155046626394019 0.19489977526903701 0.099737660181584364 0.12477245858566166 0.21278210394285291 0.23298371239408891 0.22190324974551681 0.15276848436219728 0.09760673741040915 0.19594906174560345 0.10155663798676347 0.193329209611772 0.17531185084463696 0.10756614109549555 0.15694724149819084 0.1105522745598095 0.033785055475711659 0.23476315202468251 0.21785503000708575 0.099753030012533384 0.17980715464729796 0.14618250282645537 0.11672966707108222
leaf_count=611 5355 5842 546 1424 1432 230 2467 1754 2822 6527 1111 881 1176 1245 3591 1690 2745 6098 1272 1149 5046 339 3655 12838 242 343 1095 853 2488 3132
internal_value=0 2.68523 2.54968 2.2879 2.03225 1.92992 1.82786 1.69355 3.09142 1.57565 1.39949 2.93502 3.84646 3.72917 2.88192 1.13706 3.56742 2.77071 3.39219 3.06076 2.56758 1.0178 2.42387 0.943894 2.65009 2.5692 0.798745 2.4673 2.32584 2.706
internal_count=79999 68669 62827 46013 34562 33138 31706 29239 16814 27485 23600 11451 11330 10719 13992 17073 9543 10570 8298 5553 8637 15962 3885 15623 10024 9782 13933 9439 8586 4281
shrinkage=0.05


Tree=3
num_leaves=31
num_cat=0
split_feature=99 0 110 6 115 121 34 146 26 78 146 33 44 34 44 164 192 146 110 107 91 164 22 99 147 33 107 188 146 86
split_gain=2039.08 1701.33 1345.13 931.298 763.467 729.985 675.577 602.117 517.111 501.085 469.011 467.31 465.51 473.472 463.648 443.307 432.36 412.214 409.049 390.552 375.435 349.404 337.644 314.637 297.846 283.904 280.829 272.628 261.441 256.394
threshold=0.97450000000000014 12.530300000000002 10.260650000000002 6.7147500000000013 1.8308500000000001 8.8533000000000026 10.686250000000001 8.1564500000000013 0.29545000000000005 8.1858500000000021 8.1926500000000022 9.1565000000000012 1.8745500000000004 10.647850000000002 0.58230000000000015 4.2213000000000003 1.3306500000000001 6.4568000000000003 7.841050000000001 7.9071000000000007 7.0491500000000009 4.6581000000000001 6.7488500000000009 2.9647500000000004 7.7846000000000011 7.7802000000000016 13.748600000000001 8.6346000000000007 7.9539500000000007 12.543300000000002
decision_type=2 2 2 2 2 2 2 2 2 2 2 2 2 2 2 2 2 2 2 2 2 2 2 2 2 2 2 2 2 2
left_child=1 2 3 4 10 -3 -7 -2 14 11 -1 -6 -9 -14 -8 16 24 -16 23 -12 27 22 25 26 -13 -19 -15 -21 -4 -30
right_child=7 5 28 -5 9 6 8 12 -10 -11 19 15 13 18 17 -17 -18 21 -20 20 -22 -23 -24 -25 -26 -27 -28 -29 29 -31
leaf_value=0.13937935608374125 0.18913712794516438 0.19842840988355562 0.18595467045816236 0.14640075847039577 0.1205585616735016 0.18745216991326258 0.17030378542843339 0.18820864937743415 0.15672303386481862 0.1345575983715081 0.14693615567526253 0.075550358103253459 0.19791808403742855 0.13378116378184754 0.16993484420030447 0.11590549805057651 0.044893495888331705 0.16664080937602996 0.15880921248235905 0.15905197950510497 0.11468310784737115 0.16039500199332987 0.13096853665310607 0.15656234238657968 0.16248132484358291 0.075345899821600171 0.084461720904658422 0.070238080691397156 0.14682715180033837 0.083897749938567162
leaf_count=3476 2692 1328 936 3087 1918 1509 1095 1478 3470 1456 1373 5434 731 1852 701 1718 11008 316 2507 325 4598 745 1824 1202 388 6996 3893 7554 3503 886
internal_value=0 2.32281 2.09891 1.94955 1.84316 2.82219 2.687 3.11201 2.53603 1.55027 2.1662 1.44649 2.89681 2.72687 2.30179 1.32162 1.19209 2.14343 2.58128 1.9695 1.83124 2.00181 1.86278 2.29012 1.67555 1.62391 2.0542 1.51294 2.95619 2.73633
internal_count=79999 65644 47660 42335 39248 17984 16656 14355 15147 21922 17326 20466 11663 10185 11677 18548 16830 10582 9454 13850 12477 9881 9136 6947 5822 7312 5745 7879 5325 4389
shrinkage=0.05


Tree=4
num_leaves=31
num_cat=0
split_feature=81 174 78 2 179 164 139 110 94 76 190 99 179 26 76 177 22 21 13 22 21 162 33 192 190 190 40 172 2 121
split_gain=2240.32 1513.99 1390.21 1303.81 1287.08 1086.83 1010.56 870.091 746.196 551.593 470.702 410.039 362.642 362.061 333.804 288.566 309.889 316.313 294.938 286.224 307.104 284.944 278.344 262.52 252.594 248.812 242.118 231.158 220.796 230.605
threshold=12.229350000000002 8.5715000000000021 8.685100000000002 14.835950000000002 6.8419000000000016 5.884500000000001 2.1543500000000004 8.1898000000000017 15.586450000000001 -4.6693499999999988 5.3708500000000008 0.81595000000000006 6.6427000000000005 -1.5424499999999999 3.6939500000000005 7.4037500000000014 9.3214000000000024 1.3845000000000003 -1.0192499999999998 8.8251500000000025 7.4300000000000006 7.1424500000000011 8.5162500000000012 2.1215500000000005 9.4184500000000018 3.9457500000000008 8.7714500000000033 16.261050000000001 14.482650000000001 11.709350000000002
decision_type=2 2 2 2 2 2 2 2 2 2 2 2 2 2 2 2 2 2 2 2 2 2 2 2 2 2 2 2 2 2
left_child=12 -2 3 4 5 6 11 8 9 -8 15 13 14 -3 -1 -11 17 -17 -19 20 -9 -20 -22 -5 28 -24 27 -12 29 -16
right_child=1 2 -4 23 -6 -7 7 19 -10 10 26 -13 -14 -15 24 16 -18 18 21 -21 22 -23 25 -25 -26 -27 -28 -29 -30 -31
leaf_value=0.15302261363939929 0.15348712007806656 0.076761274217059791 0.15805384033473077 0.15909380280274907 0.13741798025654259 0.140238926982198 0.099931005794215724 0.13407221824615875 0.12954336283627707 0.10935858086610223 0.090098253848654719 0.13251782485851121 0.18201015067824244 0.11547970550880858 0.12352344883689997 0.11622036605462008 0.10089388178746846 0.12096345500146975 0.018103887159781028 0.15247403754046335 0.14586575345682093 0.067538440692782406 0.056904943275071423 0.1119330297641838 0.16625933722050562 0.096456699934483026 0.1494531679447571 0.051296694066841064 0.16602758029394815 0.083315264748156842
leaf_count=4025 3524 6459 2534 2244 4082 2452 2572 1091 1366 575 2747 2525 955 3433 3160 413 673 325 14112 553 494 1740 4158 1804 625 3154 298 5341 447 2118
internal_value=0 2.01485 1.92963 1.85719 1.76608 1.6687 1.59056 1.39915 1.19303 1.101 0.988098 2.05145 2.83222 1.84777 2.72502 0.755516 0.690661 0.612129 0.546319 1.9207 1.8101 0.488065 1.6413 2.82951 2.4558 1.5166 1.40671 1.3181 2.31411 2.18969
internal_count=79999 68669 65145 62611 58563 54481 52029 39612 30162 28796 26224 12417 11330 9892 10375 17838 17263 16590 16177 9450 8897 15852 7806 4048 6350 7312 8386 8088 5725 5278
shrinkage=0.05


Tree=5
num_leaves=31
num_cat=0
split_feature=81 146 179 6 2 133 94 35 148 108 91 81 192 18 190 133 149 174 172 190 94 108 148 51 34 174 190 22 191 92
split_gain=1711.73 1250.76 988.245 963.204 839.883 588.112 620.607 515.107 464.448 428.355 436.579 393.176 376.659 375.45 315.481 302.588 274.878 262.951 254.39 310.46 249.344 247.879 242.703 236.643 231.018 226.768 225.919 219.471 208.155 213.2
threshold=12.879750000000001 7.8338500000000009 6.8419000000000016 6.6885500000000011 12.078950000000003 7.5340500000000006 15.688550000000001 10.233550000000001 3.7863500000000005 13.896650000000001 7.2140500000000012 11.179350000000001 1.8931500000000001 28.756100000000004 6.5575500000000009 7.3930500000000006 2.4376500000000005 18.610750000000007 12.989600000000001 7.7379000000000007 15.317150000000002 14.166550000000003 3.7088500000000004 24.222750000000001 11.214050000000002 16.508300000000002 6.1125000000000016 8.5362000000000027 13.0509 12.661550000000002
decision_type=2 2 2 2 2 2 2 2 2 2 2 2 2 2 2 2 2 2 2 2 2 2 2 2 2 2 2 2 2 2
left_child=8 15 3 4 5 6 7 9 -1 -3 13 -10 26 14 17 20 -13 24 -14 27 22 -18 -2 -23 -11 -24 -6 -20 29 -19
right_child=1 2 -4 -5 12 -7 -8 -9 11 10 -12 16 18 -15 -16 -17 21 28 19 -21 -22 23 25 -25 -26 -27 -28 -29 -30 -31
leaf_value=0.14639022615000097 0.14673499100043211 0.11368286311939124 0.12376781365922081 0.11807592707066289 0.094148059850173826 0.1273026726195155 0.11873753249220259 0.092032047603059247 0.12827974334413619 0.069743631428946518 0.092340510711624788 0.11744538495417439 0.10708973727004943 0.099646438710926724 0.06036326846738254 0.1628454129759071 0.10930809387647274 0.029893343889832752 0.041783088380639821 0.10869113509358935 0.15920784683366473 0.057305843450191934 0.12132242517067116 0.13192770760499178 0.029444230375446686 0.089295369984004502 0.12989283894294434 0.12070946768538944 0.08907705690385502 -0.0056155509508153774
leaf_count=2701 792 817 3738 3812 5178 973 1307 3152 5009 2586 1769 3504 1540 1000 5109 624 1968 4768 4442 960 530 3115 2549 339 4632 5629 1908 300 387 4861
internal_value=0 1.76387 1.62632 1.53784 1.43969 1.23362 1.16887 1.09084 2.38601 0.979936 0.918578 2.24437 1.82257 0.827285 0.758617 2.3175 1.98926 0.599873 1.47783 1.25408 2.21896 1.70345 2.13163 1.35882 0.91155 2.02023 2.11591 0.990521 0.342024 0.261268
internal_count=79999 63363 53239 49501 45689 31361 30388 29081 16636 25929 25112 13935 14328 23343 22343 10124 8926 17234 7242 5702 9500 5422 8970 3454 7218 8178 7086 4742 10016 9629
shrinkage=0.05


Tree=6
num_leaves=31
num_cat=0
split_feature=53 12 2 198 110 13 76 139 107 12 188 33 108 78 174 179 0 174 76 174 149 188 8 6 6 13 147 123 99 148
split_gain=1848.52 1300.87 1008.98 958.196 845.147 658.784 483.543 382.712 379.565 362.253 324.136 287.461 283.337 274.225 260.297 269.754 254.32 242.776 254.971 240.933 237.145 256.548 236.909 238.242 230.514 204.472 201.211 195.612 192.711 189.194
threshold=7.1354500000000014 13.865350000000001 14.737050000000002 12.224550000000002 8.1898000000000017 8.9172000000000011 1.6310500000000003 2.6157000000000008 14.345400000000001 13.659850000000002 8.6346000000000007 10.179300000000001 14.036750000000001 8.4015500000000021 10.327050000000002 4.4227000000000007 14.482250000000002 11.259600000000001 1.0784500000000004 8.2925500000000003 7.4114000000000013 10.714550000000001 5.7135500000000006 6.6189500000000008 5.5980500000000006 0.6321500000000001 4.9361500000000005 -0.62484999999999991 1.34155 3.7722500000000005
decision_type=2 2 2 2 2 2 2 2 2 2 2 2 2 2 2 2 2 2 2 2 2 2 2 2 2 2 2 2 2 2
left_child=1 9 3 24 5 6 -5 27 26 -1 -6 -11 -9 14 -12 22 17 -13 -19 -10 21 -14 23 25 -3 -16 28 -8 -7 -27
right_child=-2 2 -4 4 10 8 7 12 19 11 13 16 20 -15 15 -17 -18 18 -20 -21 -22 -23 -24 -25 -26 29 -28 -29 -30 -31
leaf_value=0.12750050562212942 0.13039836319002338 0.086532347189106212 0.11329751457674418 0.091818660944623348 0.14117441041266268 0.04480822662980978 0.13211711533725209 0.084550455316903403 0.088051788734524836 0.12363707203824137 0.1184662001543717 0.11956989827159914 0.10961345845194559 0.13081456157429805 0.11550964851784651 0.097270570361203235 0.12506760746631876 0.10170397240853753 0.067218189995950722 0.02583592245180711 0.016778620139619574 0.043196661575140752 0.12969727088357846 0.10295493376508091 0.12005667621169791 0.083765569313394628 0.10161838224750473 0.074074242093111267 0.095855333890463981 0.037570114923007297
leaf_count=2670 5451 3649 4170 5529 550 4752 399 1529 518 1916 856 1026 571 598 306 2421 1084 2257 6121 10976 3851 4530 298 680 2567 883 863 3064 687 5227
internal_value=0 1.64362 1.50313 1.42176 1.31879 1.15418 1.39509 1.1767 0.850067 2.07286 1.7252 1.93014 0.944481 1.64416 1.56099 1.45792 1.80076 1.69097 1.56971 0.602603 0.77792 1.06568 1.25822 1.168 2.05537 1.0228 1.23598 1.66775 1.07328 0.922491
internal_count=79999 74548 59474 55304 49088 37269 19473 13944 17796 15074 11819 12404 10481 11269 10671 9815 10488 9404 8378 11494 8952 5101 7394 7096 6216 6416 6302 3463 5439 6110
shrinkage=0.05


Tree=7
num_leaves=31
num_cat=0
split_feature=80 166 81 12 133 170 198 22 78 13 94 99 177 122 6 190 163 13 169 149 99 9 22 108 24 198 6 191 169 28
split_gain=1339.19 1299.91 1173.64 943.426 861.832 739.93 659.29 672.464 533.973 480.845 477.526 460.675 373.166 380.074 323.291 319.043 297.571 249.652 246.703 237.084 232.009 239.507 208.606 229.478 206.746 185.55 180.847 178.608 176.696 158.691
threshold=-5.5240999999999998 2.3828500000000004 12.364450000000001 13.831550000000002 7.3816500000000014 7.2289500000000011 11.0982 8.143950000000002 8.6051500000000019 -0.27824999999999994 15.317150000000002 2.3597500000000005 7.2662000000000004 -7.4698499999999992 6.3108500000000012 10.923200000000003 19.149550000000001 3.0018500000000006 5.0801500000000006 3.9412500000000006 1.5310500000000002 5.3411500000000007 8.0086000000000013 14.204550000000001 16.249900000000004 15.778050000000002 5.6178500000000007 8.2277500000000021 5.1182500000000006 5.6312500000000005
decision_type=2 2 2 2 2 2 2 2 2 2 2 2 2 2 2 2 2 2 2 2 2 2 2 2 2 2 2 2 2 2
left_child=-1 -2 17 18 5 6 28 8 9 29 11 12 -11 -14 15 16 19 -3 -4 27 21 -20 23 -19 -21 -23 -25 -15 -5 -8
right_child=1 2 3 4 -6 -7 7 -9 -10 10 -12 -13 13 14 -16 -17 -18 22 20 24 -22 25 -24 26 -26 -27 -28 -29 -30 -31
leaf_value=0.11368524816470015 0.11438835142218309 0.12004264535237644 0.13022228362302035 0.14746526158453119 0.0986987702610964 0.10129276300595998 0.12155115600199258 0.083353116792566295 0.091939164055358444 0.086832247307631671 0.080543189522826186 0.077784897463186412 0.076716087249773066 0.012402416587300605 0.049137991253133624 0.066417735979222778 0.058264502498092188 0.096835301154023584 0.14281998664657444 -0.0029285595920150844 0.11663045537529226 0.087937640194065761 0.11868416530455235 0.053066096007492347 0.049339941283739169 0.05923570271200379 0.08786277142069332 0.042154786070259825 0.083289777011677904 0.051382828040599043
leaf_count=5767 4344 1430 653 235 3417 2373 556 3650 1562 942 1980 1754 1374 5990 4437 1217 1595 3847 247 11341 994 3405 927 2602 910 3733 1810 3908 2518 481
internal_value=0 1.49157 1.41896 1.29542 1.17637 1.09365 1.02658 0.953183 0.860164 0.799262 0.749275 0.680683 0.610341 0.562514 0.503661 0.395969 0.329084 1.88004 1.78306 0.254535 1.68888 1.5629 1.76994 1.67381 0.0351125 1.48551 1.39228 0.501067 1.84017 1.93975
internal_count=79999 74232 69888 59272 50240 46823 44450 41697 38047 36485 35448 33468 31714 30772 29398 24961 23744 10616 9032 22149 8379 7385 9186 8259 12251 7138 4412 9898 2753 1037
shrinkage=0.05


Tree=8
num_leaves=31
num_cat=0
split_feature=53 21 34 164 123 166 21 26 198 122 44 149 148 26 121 99 99 179 121 67 155 86 147 123 122 34 154 130 67 108
split_gain=1367.85 1164.71 678.708 632.568 566.817 558.693 506.548 480.256 469.451 386.85 379.084 357.752 344.05 285.607 272.889 288.973 268.011 254.845 229.079 233.391 211.544 221.441 197.238 196.187 194.01 195.326 215.164 189.519 184.088 186.529
threshold=7.2898500000000004 15.564100000000002 10.647850000000002 5.3325000000000005 -3.0418499999999997 2.3828500000000004 3.4364500000000002 -1.0232499999999998 14.732600000000001 -9.293549999999998 3.2693500000000006 -1.2458999999999998 3.6916500000000005 7.3045500000000008 8.7725500000000025 0.69195000000000018 -1.0654499999999996 7.4595000000000011 8.630250000000002 12.335100000000002 7.928700000000001 -4.3103499999999988 11.716500000000002 0.45500000000000007 -6.9494499999999997 10.941250000000002 2.5415500000000004 13.601550000000001 21.920000000000005 13.999050000000002
decision_type=2 2 2 2 2 2 2 2 2 2 2 2 2 2 2 2 2 2 2 2 2 2 2 2 2 2 2 2 2 2
left_child=1 5 -3 4 -4 -1 -7 10 17 -10 -8 20 -12 16 -14 24 22 18 -6 -20 21 -11 -13 -9 -16 -26 -27 -18 29 -25
right_child=-2 2 3 -5 8 6 7 23 9 11 12 13 14 -15 15 -17 27 -19 19 -21 -22 -23 -24 28 25 26 -28 -29 -30 -31
leaf_value=0.11576308387532126 0.11279665151396759 0.09288183932159437 0.092268788492175513 0.093085557308198716 0.10240697148740463 0.10268013388278192 0.088650971682803156 0.11428681078865921 0.10828980946448144 0.096725879333776701 0.097228144762562613 0.0065025192571838437 0.094762061256413621 0.082725437984234873 0.086327070793908542 0.070743783081967201 0.032417255180239191 0.1043323462572181 0.039998430273655371 0.066568827735163746 0.11781164653040946 0.043284786675748053 0.10530579154491881 0.11143969079070865 0.060507858636698789 0.058030083357022061 0.017707631147303931 0.089009341717824833 0.11719717350499347 0.070094577032198735
leaf_count=1896 3934 3288 2032 2386 642 3654 3199 1209 462 593 1122 7200 894 604 584 2979 8385 689 5987 5541 284 5266 132 664 1972 1542 6269 469 675 5446
internal_value=0 1.36544 1.16135 1.08598 1.0161 1.60259 1.53216 1.43626 0.952259 0.77811 1.26205 0.732056 1.12846 0.570225 1.0327 0.952407 0.505982 1.22344 1.14749 1.0763 1.10938 1.0129 0.194132 1.75847 0.77906 0.700961 0.542593 0.728006 1.63455 1.52781
internal_count=79999 76065 43960 40672 38286 32105 30209 26555 36254 23395 18561 22933 15362 16790 14240 13346 16186 12859 12170 11528 6143 5859 7332 7994 10367 9783 7811 8854 6785 6110
shrinkage=0.05


Tree=9
num_leaves=31
num_cat=0
split_feature=109 53 146 139 190 170 179 21 80 22 166 78 198 108 2 12 21 21 184 115 12 109 137 191 165 146 148 22 111 173
split_gain=1642.27 1114.25 952.92 848.239 772.896 684.885 619.617 554.313 560.146 588.923 460.609 374.297 384.891 290.484 231.29 261.784 217.076 216.811 197.002 191.198 174.22 167.264 166.273 163.238 161.571 159.224 154.667 177.047 145.153 144.418
threshold=12.689350000000003 6.9110500000000012 6.4568000000000003 -2.9321999999999995 7.7379000000000007 7.8542500000000013 6.9491000000000005 5.0498500000000011 -3.8424499999999995 8.0086000000000013 2.3828500000000004 8.4015500000000021 11.210850000000001 13.995650000000001 15.271800000000001 13.988550000000002 18.295650000000006 9.9037000000000024 11.981550000000002 1.44025 14.012450000000001 10.733850000000002 31.801900000000003 11.439550000000002 12.331550000000002 8.7614500000000017 3.8410500000000005 4.1208500000000008 7.3964500000000006 4.3823500000000006
decision_type=2 2 2 2 2 2 2 2 2 2 2 2 2 2 2 2 2 2 2 2 2 2 2 2 2 2 2 2 2 2
left_child=21 2 -2 -4 5 6 7 -5 20 10 -10 12 -12 23 15 18 -3 -6 -15 -19 -9 -1 28 -14 -20 -23 -21 -28 -17 -26
right_child=1 16 3 4 17 -7 -8 8 9 -11 11 -13 13 14 -16 22 -18 19 24 26 -22 25 -24 -25 29 -27 27 -29 -30 -31
leaf_value=0.11383190063717985 0.089648288082252794 0.097365123726943892 0.081619551932803083 0.071566023395202849 0.093622458379196916 0.092287315810912027 0.077154268366854878 0.081044848743020134 0.065280028188590397 0.06310484504318592 0.056851291303847841 0.062363752276236743 0.033283928385382952 0.0024258617710876166 0.049360835511832672 -0.013754521466230924 0.071667022798097835 0.079361173986378167 0.080386986942745584 0.078345336492093201 0.043914476439066652 0.11082407422580252 0.039862769046065137 0.10018139223570106 0.015363939856478426 0.079270173488995635 0.017169429128856242 0.059047074924909237 0.01804886714476537 0.057414077079000439
leaf_count=2510 4283 4602 5407 2973 1718 1712 2823 1849 1755 3303 1789 1525 2348 4569 1120 10116 3708 2828 439 1025 2020 1162 807 266 3632 3222 1737 1830 1988 933
internal_value=0 1.22154 1.13234 1.06139 0.980469 0.869423 0.814606 0.744409 0.671392 0.580678 0.481467 0.407969 0.344092 0.269275 0.187031 0.131545 1.74671 1.41331 0.37879 1.26948 1.28951 2.00083 -0.0858008 0.865046 0.640518 1.80207 1.02878 0.826716 -0.15843 0.509134
internal_count=79999 73105 64795 60512 55105 45967 44255 41432 38459 34590 31287 29532 28007 26218 23604 22484 8310 9138 9573 7420 3869 6894 12911 2614 5004 4384 4592 3567 12104 4565
shrinkage=0.05


Tree=10
num_leaves=31
num_cat=0
split_feature=109 110 81 40 34 76 170 123 121 6 110 91 99 99 33 6 174 81 148 127 28 0 170 87 172 99 34 86 165 148
split_gain=1334.69 1080.5 840.611 687.037 570.113 519.926 384.396 359.022 348.785 334.111 355.943 307.758 293.514 277.386 251.399 252.02 221.987 216.353 211.425 189.156 187.654 184.16 180.458 168.992 162.758 160.857 159.148 162.028 158.527 156.927
threshold=12.602550000000003 7.9371500000000008 11.424400000000002 6.191250000000001 10.730750000000002 1.2694000000000003 7.4226000000000001 -0.23634999999999998 8.5202500000000025 6.3108500000000012 11.642900000000001 7.2140500000000012 2.1422500000000002 -0.36744999999999994 8.1717000000000013 6.7147500000000013 9.7469500000000018 12.184950000000002 3.7146500000000002 -3.7975499999999998 4.2138000000000009 15.060150000000002 1.7254500000000002 3.8260500000000004 31.460800000000003 0.81595000000000006 11.749150000000002 7.189750000000001 15.573400000000001 3.9120500000000002
decision_type=2 2 2 2 2 2 2 2 2 2 2 2 2 2 2 2 2 2 2 2 2 2 2 2 2 2 2 2 2 2
left_child=-1 2 -2 4 29 13 7 24 -9 10 16 12 14 -6 -10 18 -3 -18 -16 -19 -20 23 25 -22 -7 26 27 -21 -15 -4
right_child=1 9 3 -5 5 6 -8 8 11 -11 -12 -13 -14 28 15 -17 17 19 20 22 21 -23 -24 -25 -26 -27 -28 -29 -30 -31
leaf_value=0.091455553157480218 0.078033637901726793 0.091839964343223723 0.086299594491102166 0.081338853847421511 0.040282300187250812 0.059810112076648207 0.073614514757575703 0.070671196203472661 0.054620618095509645 0.092221115936426262 0.085475337635462889 0.056655553236439726 0.053306256335770311 0.092051494083551122 0.037726288295812926 0.045698587312708788 0.078007124932258684 0.085201852588256577 0.04536753856687728 0.052724726773723099 0.027832250506342911 0.034670262422013091 0.060471836460938538 -0.0081925501530007994 -0.020335183473271928 0.061259012362731541 -0.0039105131516070195 0.009346669809389559 0.058457604039846872 0.055681762256825973
leaf_count=6577 4604 885 1693 3056 6598 3114 1349 1070 1133 3062 3803 1691 1507 1097 1673 1427 1646 786 871 1831 1483 1281 3245 13388 319 1153 1491 1424 3716 3026
internal_value=0 1.12962 0.986961 0.899728 0.834915 0.755863 0.613562 0.557782 0.469055 1.4379 1.33216 0.411945 0.341965 1.06885 0.26905 0.208591 1.17923 1.10232 0.132651 0.982066 0.0526091 -0.00573142 0.897882 -0.0805066 1.09476 0.690072 0.510284 0.726368 1.3577 1.37366
internal_count=79999 73422 54096 49492 46436 41717 30306 28957 25524 19326 16264 24454 22763 11411 21256 20123 12461 11576 18696 9930 17023 16152 9144 14871 3433 5899 4746 3255 4813 4719
shrinkage=0.05


Tree=11
num_leaves=31
num_cat=0
split_feature=165 0 53 44 6 76 22 34 33 198 166 78 5 133 40 190 177 22 149 26 184 149 133 186 173 198 130 40 184 165
split_gain=1001.25 953.962 920.324 818.085 634.783 431.452 344.665 322.919 321.525 316.456 333.28 318.025 310.014 262.168 266.767 239.874 226.741 212.999 210.122 196.331 195.682 192.257 179.378 164.249 161.935 159.488 150.335 147.877 147.406 152.253
threshold=11.624850000000002 15.367900000000002 7.1354500000000014 2.9122000000000008 5.5779500000000004 2.1687500000000006 9.4806000000000008 10.661850000000001 7.4633000000000003 11.0982 2.3828500000000004 7.6837500000000007 5.2733500000000006 7.2736500000000008 2.6683500000000007 8.0387500000000021 7.2662000000000004 6.2737000000000007 7.0860500000000011 7.3045500000000008 27.829050000000006 -0.37304999999999994 7.3712500000000007 4.8893500000000012 0.32625000000000004 15.744100000000001 12.977650000000002 0.31420000000000009 29.217850000000002 20.930750000000007
decision_type=2 2 2 2 2 2 2 2 2 2 2 2 2 2 2 2 2 2 2 2 2 2 2 2 2 2 2 2 2 2
left_child=-1 2 3 18 5 17 9 -7 -9 -6 -11 13 15 14 16 20 -12 24 28 21 22 -18 23 -10 -5 -17 -14 -27 29 -2
right_child=1 -3 -4 4 6 7 -8 8 12 10 11 -13 26 -15 -16 25 19 -19 -20 -21 -22 -23 -24 -25 -26 27 -28 -29 -30 -31
leaf_value=0.085689168132412508 0.08245234876966917 0.08293426277078518 0.080262944060269778 0.025949129120192885 0.082005776283741616 0.058821227461749684 0.09254591705624414 0.073848178887902252 0.031885339065191497 0.081674875897275956 0.083203486286262715 0.069533734703923961 0.037137366546038601 0.065165929403644116 0.061193552511914065 0.058021495340960828 0.039554495838868914 0.066423565302788493 0.052503331696576727 0.070582172765488727 0.048232100324071096 0.014062274268271169 0.041006152964692684 -0.0033708425020802521 0.052702978219389685 -0.0057679073128652329 0.095502921118162429 0.063720315494521451 0.12064034376683663 0.055508811716851347
leaf_count=5450 3248 5221 4674 4072 1378 1711 890 691 1371 1198 402 2316 1356 1936 1969 1201 3574 2569 4456 502 891 8728 986 11671 3248 1105 356 278 264 2287
internal_value=0 1.05792 0.996356 0.931749 0.837074 0.657834 1.04332 0.496253 0.415847 0.989868 0.924879 0.855795 0.358464 0.759947 0.66823 0.271053 0.56156 0.948478 1.34029 0.507095 0.160469 0.446774 0.0934914 0.0198834 0.777719 0.757526 1.06645 0.278213 1.52224 1.45456
internal_count=79999 74549 69328 64654 54399 31506 22893 21617 19906 22003 20625 19427 19215 17111 15175 17503 13206 9889 10255 12804 14919 12302 14028 13042 7320 2584 1712 1383 5799 5535
shrinkage=0.05


Tree=12
num_leaves=31
num_cat=0
split_feature=26 12 133 149 148 76 13 174 148 166 165 139 165 115 123 139 170 75 174 170 154 1 115 1 165 92 13 191 28 62
split_gain=928.691 834.101 781.06 688.638 391.069 378.375 375.932 344.73 338.874 328.63 306.047 292.714 245.103 240.219 226.249 190.762 201.175 179.834 193.181 172.691 197.553 172.338 170.149 168.388 162.996 162.335 194.341 153.088 146.297 142.296
threshold=4.1934500000000012 13.727650000000002 7.1921500000000007 5.2327500000000011 3.7146500000000002 -5.5584499999999988 1.0000000180025095e-35 9.9515000000000011 3.7722500000000005 2.3228500000000003 14.486350000000002 1.1626000000000003 11.482550000000002 0.52705000000000013 6.5825500000000003 -6.9442999999999993 7.6266500000000006 7.7295500000000006 16.916350000000005 4.3706500000000004 -1.7531999999999999 4.9891500000000013 -1.9456499999999999 -2.0319499999999997 20.700050000000001 11.559450000000002 2.3032500000000007 5.4776500000000006 5.6583500000000013 0.36125000000000007
decision_type=2 2 2 2 2 2 2 2 2 2 2 2 2 2 2 2 2 2 2 2 2 2 2 2 2 2 2 2 2 2
left_child=1 -1 3 5 -5 -3 -7 -8 -9 -6 29 27 -13 21 22 -15 -17 -4 -19 20 -16 -12 -14 -24 -2 -20 -27 -10 -21 -11
right_child=24 2 17 4 9 6 7 8 11 10 13 12 14 15 19 16 -18 18 25 28 -22 -23 23 -25 -26 26 -28 -29 -30 -31
leaf_value=0.076440256028810841 0.08415514335494774 0.077851955524374086 0.095232316571677592 0.059746741770326517 0.066508231435211035 0.088726079381989231 0.073897601699220272 0.063378007812816828 0.026417152421779378 0.023208819091670354 0.03041108258899889 0.06688733985847628 0.084268754014679051 0.058532993663641945 0.073191760279751064 0.0067933921326740771 0.055241490163364264 0.074302819972113562 0.066267611015473613 0.066773805421134397 0.0026139042342350378 0.09260515341206893 0.015227176813138005 0.045699632616607921 0.061293580833468447 0.084612814361731348 0.032569167985805947 0.062761656191594031 0.0033764374385476595 0.055825661288510388
leaf_count=4608 4072 2308 754 2576 1077 938 1850 3331 1171 1783 5142 1010 414 504 263 14247 633 3535 2771 710 6634 244 3036 3474 2739 412 3670 2844 568 2681
internal_value=0 0.971277 0.912723 0.821582 0.615306 1.00147 0.932768 0.882146 0.812619 0.537263 0.482866 0.712665 0.582726 0.37718 0.510868 0.245307 0.193947 1.28336 1.21993 0.279304 0.140503 0.699143 0.747722 0.658738 1.52458 1.04463 0.812982 1.08137 0.875784 0.889008
internal_count=79999 73188 68580 57438 28887 28551 26243 25305 23455 26311 25234 20124 16109 20770 15099 15384 14880 11142 10388 8175 6897 5386 6924 6510 6811 6853 4082 4015 1278 4464
shrinkage=0.05


Tree=13
num_leaves=31
num_cat=0
split_feature=109 21 12 26 76 174 164 0 13 33 75 133 146 190 2 78 22 8 179 107 165 13 109 5 165 48 154 26 133 146
split_gain=1072.11 803.752 696.798 627.669 616.552 492.242 415.687 392.053 328.539 285.598 277.328 265.805 259.933 246.489 240.891 213.101 210.528 194.17 184.681 194.848 179.472 170.783 165.064 164.968 153.156 152.406 146.36 138.801 157.489 138.107
threshold=13.087300000000001 9.1488500000000013 13.727650000000002 6.3190000000000008 1.0784500000000004 8.5715000000000021 6.3471000000000011 12.530300000000002 -0.61794999999999989 8.6243500000000015 8.6731000000000016 7.4772500000000006 8.4070000000000018 10.923200000000003 15.546200000000001 8.8637000000000015 4.9860500000000014 -2.8600499999999998 5.2113500000000004 9.6190000000000015 17.761750000000003 9.1319500000000016 11.535300000000001 7.314750000000001 9.5732000000000017 29.822300000000002 -0.38174999999999992 -0.89149999999999985 7.0326500000000012 6.5356500000000013
decision_type=2 2 2 2 2 2 2 2 2 2 2 2 2 2 2 2 2 2 2 2 2 2 2 2 2 2 2 2 2 2
left_child=22 18 -3 4 10 -6 7 8 -7 -10 -4 13 -12 14 15 17 24 -11 19 -2 -19 -21 -1 25 -14 26 -9 28 -24 -22
right_child=1 2 3 -5 5 6 -8 23 9 11 12 -13 16 -15 -16 -17 -18 20 -20 21 29 -23 27 -25 -26 -27 -28 -29 -30 -31
leaf_value=0.082074333178671549 0.078939596346791915 0.068231421272406764 0.078883648581741461 0.069205958504549192 0.064124154766990613 0.068221660273400361 0.06543330692698511 0.066261616231506351 0.047334374345864738 -0.020320513370024579 0.063313075207241082 0.051850444338867874 0.087139175383817741 0.046093592790124732 0.047524577658621843 0.051416613890726909 0.050264351617516703 0.017725244176487739 0.079976136029827449 0.061178966843910235 0.034462538915762231 0.037915821059818826 0.038498687431218162 0.077714943929502969 0.021621064873730767 0.064154680309763498 0.025730187861133805 0.078854273670667233 0.075435300739434191 -0.0077037462553022065
leaf_count=3726 1569 3768 1322 2803 1877 667 1358 610 1669 4132 2880 972 168 1076 863 576 4083 6216 2077 4493 636 3821 2361 530 5723 949 7613 1441 934 9086
internal_value=0 0.889568 0.799712 0.738929 0.68583 0.557485 0.499237 0.451639 0.320939 0.276324 0.969607 0.213372 0.883095 0.161208 0.105512 0.0529249 0.736109 0.0101169 1.24051 1.1415 0.105466 1.0321 1.44235 0.746004 0.501639 0.680867 0.593591 1.23862 1.03471 -0.0756808
internal_count=79999 71537 59577 55809 53006 38830 36953 35595 25893 25226 14176 23557 12854 22585 21509 20646 9974 20070 11960 9883 15938 8314 8462 9702 5891 9172 8223 4736 3295 9722
shrinkage=0.05


Tree=14
num_leaves=31
num_cat=0
split_feature=110 121 198 94 115 21 166 147 172 13 0 89 148 18 108 67 0 108 177 12 148 184 49 67 58 5 67 9 169 177
split_gain=836.11 784.451 739.026 689.049 614.798 417.104 336.949 324.488 266.36 263.54 245.167 229.387 221.268 217.457 214.796 212.911 207.115 208.124 195.979 178.88 169.027 167.921 161.333 157.771 155.569 145.842 135.99 129.718 123.005 122.756
threshold=11.512650000000002 8.630250000000002 12.351450000000002 15.586450000000001 1.27085 13.498650000000001 2.5522500000000004 7.5803000000000003 12.624550000000001 0.44175000000000003 15.159500000000001 4.719450000000001 3.7757500000000004 25.218950000000003 14.002650000000001 9.6518000000000015 14.958900000000002 13.950350000000002 7.4037500000000014 13.988550000000002 3.6577500000000005 24.777950000000004 13.413750000000002 11.202500000000002 2.2858500000000004 4.8246000000000011 20.083150000000007 5.6041500000000006 5.3883500000000009 7.2662000000000004
decision_type=2 2 2 2 2 2 2 2 2 2 2 2 2 2 2 2 2 2 2 2 2 2 2 2 2 2 2 2 2 2
left_child=1 -1 23 4 6 12 -4 8 26 -8 13 20 -6 14 -11 25 17 -14 -19 -16 -10 22 -17 -3 -20 29 28 -22 -7 -13
right_child=-2 2 3 -5 5 7 9 -9 11 10 -12 15 16 -15 19 21 -18 18 24 -21 27 -23 -24 -25 -26 -27 -28 -29 -30 -31
leaf_value=0.073095728236587998 0.070636323812824239 0.048085620313776112 0.067222314950226722 0.070004737612319942 0.062478512918615309 0.049909501179418253 0.077480176515790644 0.052089020153414156 0.043411733091339819 0.056332277756859499 0.066381465590776581 0.074029881939147904 0.070124449993662005 0.059459236486795713 0.036741609854730746 2.0484285747077695e-05 0.066289097693593757 0.078880445439919775 0.034903675735991513 0.015830041183677045 0.036467633745644379 0.073323809592388767 0.038612963975447383 0.068594579463829145 0.010808256013022901 0.054622880434601534 0.065021997569342876 -0.0043191102965853554 0.016927992715195191 -0.01400589935678383
leaf_count=3863 5309 3958 2910 2919 1751 1134 793 1819 602 1600 1391 89 584 1768 5520 1473 939 310 3676 7489 641 512 2637 4638 5025 284 687 10196 3054 2428
internal_value=0 0.84721 0.800228 0.727414 0.679472 0.536368 0.894879 0.394567 0.328559 0.800733 0.747271 0.220495 0.78183 0.678514 0.600994 0.462932 0.67402 0.584906 0.503759 0.515313 0.0417385 0.678445 0.537103 1.20245 0.439809 0.0231505 0.686166 -0.0253876 0.547758 -0.16146
internal_count=79999 74690 70827 62231 59312 37841 21471 25556 23737 18561 17768 18862 12285 16377 14609 7423 10534 9595 9011 13009 11439 4622 4110 8596 8701 2801 4875 10837 4188 2517
shrinkage=0.05


Tree=15
num_leaves=31
num_cat=0
split_feature=81 139 164 0 177 99 53 192 75 99 169 157 75 44 166 125 133 196 133 147 165 165 170 148 0 165 106 51 118 53
split_gain=947.514 709.199 525.261 530.005 508.046 487.849 483.545 431.146 285.066 265.415 238.969 235.445 235.419 235.748 228.601 223.738 218.291 212.195 244.674 206.649 188.36 186.905 202.203 168.906 159.801 154.17 153.268 145.761 137.697 137.459
threshold=11.933650000000002 3.3681500000000004 6.9105000000000008 14.958900000000002 7.1280500000000009 2.4396500000000008 6.941250000000001 1.4719500000000003 10.063850000000002 0.81595000000000006 5.0690500000000007 3.7292500000000004 6.4186000000000005 1.2865500000000003 2.5646500000000008 12.953650000000001 7.360850000000001 11.953950000000003 7.4179500000000003 6.1436000000000011 14.977250000000002 12.574650000000002 7.2289500000000011 3.7795500000000004 12.421450000000002 16.260850000000001 10.419250000000002 24.568850000000001 -8.3949999999999978 7.5333500000000013
decision_type=2 2 2 2 2 2 2 2 2 2 2 2 2 2 2 2 2 2 2 2 2 2 2 2 2 2 2 2 2 2
left_child=25 9 3 4 -3 6 7 17 -9 10 -2 16 -12 -14 -15 24 21 18 19 20 -6 -10 23 28 29 -1 -22 -25 -23 -16
right_child=1 2 -4 -5 5 -7 -8 8 11 -11 12 -13 13 14 15 -17 -18 -19 -20 -21 26 22 -24 27 -26 -27 -28 -29 -30 -31
leaf_value=0.072927454956410648 0.074808459146093825 0.072421253678427375 0.071871124758835017 0.056343772095677452 0.040119771469798088 0.058996094132399514 0.046974786755312838 0.033925281905212289 0.027289066575886263 0.064407653336733761 0.079417406348467556 0.039940101316829055 0.063618749603226277 0.057672356952520869 0.015351485264720834 0.065640635827162258 0.033701290324970587 0.078754204458094779 0.066268164880475364 0.053431703021816095 0.0063876077183007574 -0.020733113580558842 0.036738049475905442 -0.017954814646932563 0.040626698135040003 0.055081759567933479 0.03683555608316532 0.018105745942902717 0.029583101988026203 0.070874774532302454
leaf_count=2855 1076 1189 1497 4049 2394 2114 4309 3164 1554 4174 667 1323 1679 1853 7149 813 1343 457 770 1338 7571 793 750 11280 2950 6603 1584 1130 1362 209
internal_value=0 0.762833 0.639468 0.59925 0.534785 0.494738 0.441215 0.362566 0.191802 0.990697 0.890004 0.0972259 0.830455 0.778926 0.694283 0.590948 0.0325066 0.599489 0.550762 0.476462 0.386503 -0.0391682 -0.113992 -0.176917 0.512139 1.22877 0.252015 -0.280357 0.286349 0.362108
internal_count=79999 70541 49971 48474 44425 43236 41122 36813 22699 20570 16396 19535 15320 14653 12974 11121 18212 14114 13657 12887 11549 16869 15315 14565 10308 9458 9155 12410 2155 7358
shrinkage=0.05


Tree=16
num_leaves=31
num_cat=0
split_feature=109 81 34 190 40 12 167 139 197 13 53 6 188 40 118 147 6 86 190 109 151 186 13 67 133 91 13 12 13 91
split_gain=889.604 830.117 619.821 518.549 328.083 306.214 264.295 278.384 257.376 248.316 221.573 220.765 215.233 193.203 187.788 183.262 182.135 170.065 167.631 163.847 151.972 137.821 145.999 137.693 134.511 133.926 131.362 130.073 128.659 124.146
threshold=13.087300000000001 12.779150000000001 11.762750000000002 5.6725500000000002 7.1671500000000004 13.843350000000003 3.2764500000000005 -1.9176999999999997 7.3108000000000013 8.9708000000000023 6.957250000000001 5.7235500000000004 8.6346000000000007 3.9453500000000008 -6.5538499999999988 7.7846000000000011 5.6667500000000013 -1.5407499999999998 8.8925500000000017 11.535300000000001 11.861700000000001 5.6128500000000008 3.0018500000000006 16.034550000000007 6.7993500000000013 7.1498500000000007 2.3961000000000001 13.948850000000002 -0.27824999999999994 7.1565500000000011
decision_type=2 2 2 2 2 2 2 2 2 2 2 2 2 2 2 2 2 2 2 2 2 2 2 2 2 2 2 2 2 2
left_child=17 10 3 4 5 -3 7 -4 -7 16 11 21 -9 18 24 23 20 -1 25 -19 -10 -2 -23 29 -5 28 -16 -24 -14 -11
right_child=1 2 6 14 -6 8 -8 12 9 15 -12 -13 13 -15 26 -17 -18 19 -20 -21 -22 22 27 -25 -26 -27 -28 -29 -30 -31
leaf_value=0.079013422740619788 0.059967674095880323 0.044453680391872336 0.041134040832282198 0.022581103152119641 0.063203969489446732 0.061471749805590281 0.038176628363498159 0.054096341626815064 0.0074960686213444766 -0.0096641724489822615 0.072964121603612403 0.058682226767556502 0.045769236843790917 0.033798265695019113 0.081506863262036211 0.049352944296561625 0.040653223091079306 0.066267888785728132 0.026680083513098932 0.043953453454838448 0.035309966534334422 0.05970119188611004 0.043314891417211863 0.021365640377920672 0.048641675697049434 0.016773697077426871 0.052574729948149546 0.018716895727312104 -0.015803804799039891 0.02539163856057744
leaf_count=1544 1221 4584 1488 2610 1439 924 3018 539 4549 5766 1462 4637 221 1166 767 652 4350 3020 1177 3898 2395 862 2026 2670 2685 1530 6089 3788 7952 970
internal_value=0 0.722929 0.619315 0.725498 0.587133 0.535949 0.324543 0.209741 0.437445 0.390233 1.02389 0.949244 0.100487 0.0383303 0.982922 0.166453 0.561053 1.21456 -0.0529873 1.10568 0.364868 0.780201 0.681142 0.0870356 0.745492 -0.151448 1.13832 0.575116 -0.262118 -0.0707885
internal_count=79999 71537 57541 40450 28299 26860 17091 14073 22276 21352 13996 12534 12585 12046 12151 10058 11294 8462 10880 6918 6944 7897 6676 9406 5295 9703 6856 5814 8173 6736
shrinkage=0.05


Tree=17
num_leaves=31
num_cat=0
split_feature=80 139 81 146 6 110 94 12 76 95 109 174 26 107 2 12 78 166 162 26 145 190 163 81 81 76 139 166 192 49
split_gain=821.214 741.199 575.435 453.311 399.733 371.952 335.137 317.789 276.38 236.242 235.511 239.977 226.158 229.374 218.657 194.126 189.114 207.176 177.468 164.064 156.904 160.527 165.235 152.824 140.281 133.961 132.254 129.742 120.938 120.816
threshold=-5.7746999999999984 3.3681500000000004 13.009950000000002 6.6186500000000006 6.7147500000000013 11.642900000000001 14.506450000000003 13.902150000000002 -6.0566999999999993 1.2683500000000001 11.959450000000002 8.2925500000000003 5.2263500000000009 6.5429500000000003 12.140350000000002 13.837850000000001 8.4015500000000021 2.8840500000000007 7.4386500000000009 3.1369500000000006 11.183550000000002 8.9882500000000025 16.970450000000003 14.319850000000002 11.089750000000002 16.413150000000005 -5.1857999999999995 2.9887500000000005 1.9692500000000004 29.449350000000006
decision_type=2 2 2 2 2 2 2 2 2 2 2 2 2 2 2 2 2 2 2 2 2 2 2 2 2 2 2 2 2 2
left_child=-1 7 16 -4 5 6 8 -2 29 12 -9 -12 13 27 18 -15 17 28 19 23 21 22 -17 -13 -19 -8 -25 -10 -3 -5
right_child=1 2 3 4 -6 -7 25 10 9 -11 11 14 -14 15 -16 20 -18 24 -20 -21 -22 -23 -24 26 -26 -27 -28 -29 -30 -31
leaf_value=0.062361999587405771 0.058323551940893351 0.060536858465620319 0.050369035617097303 0.032108845056884501 0.046983427566159086 0.047098281462928424 0.041427715836521273 0.068678489601339474 0.052610472819593926 0.055595109068707682 0.070231398662324959 0.030284809677672234 0.033604067265915687 0.01791226761406595 0.046645244162488185 -0.014854387768233135 0.074664843773080233 0.044004348483492758 0.05935332780652447 0.048660747592701004 0.029581850999419623 0.016903377691942046 0.013829585719484214 0.03369775580545014 0.019902105011611063 -0.025745854280572897 -0.0015230000007784518 0.0038617384179355841 0.037252719366777022 0.099311225866340655
leaf_count=5437 5874 2472 2958 1948 2783 2096 3330 944 892 629 707 3278 1691 3664 4390 14611 643 2051 742 1007 1037 1940 2200 884 4291 333 3925 839 2297 106
internal_value=0 0.690564 0.570978 0.45935 0.396267 0.333709 0.275718 0.909448 0.201873 0.143451 0.785863 0.726549 0.111131 0.0559301 0.668879 -0.000890823 0.852484 0.795726 0.522449 0.449051 -0.0897901 -0.137034 -0.211165 0.353514 0.596399 0.747141 0.13483 0.663021 1.01333 0.770249
internal_count=79999 74562 52811 41057 38099 35316 33220 21751 29557 27503 15877 14933 26874 25183 14226 23452 11754 11111 9836 9094 19788 18751 16811 8087 6342 3663 4809 1731 4769 2054
shrinkage=0.05


Tree=18
num_leaves=31
num_cat=0
split_feature=40 80 12 22 53 99 149 148 107 0 118 190 0 110 99 164 122 22 0 1 130 166 122 157 130 196 53 148 170 9
split_gain=770.097 737.608 558.193 437.352 377.92 322.309 295.692 287.679 259.302 250.412 249.962 188.4 188.391 186.116 171.732 155.294 152.208 155.904 156.3 143.746 143.68 143.303 142.812 136.485 135.131 134.471 140.303 131.176 131.155 125.947
threshold=6.4787000000000008 3.0327500000000005 13.865350000000001 6.1309500000000012 6.4608500000000006 1.7012000000000003 7.3081500000000004 3.7649500000000002 7.4338500000000005 12.308750000000002 -5.6168499999999986 6.2760500000000006 15.060150000000002 8.6678500000000014 2.5305000000000004 4.774350000000001 -5.7607499999999989 9.3214000000000024 14.276750000000002 -2.3104999999999998 13.520650000000002 2.7510500000000007 0.56650000000000011 2.0673000000000004 12.428650000000001 11.953950000000003 7.0070500000000013 3.8694500000000005 7.4226000000000001 6.5956500000000009
decision_type=2 2 2 2 2 2 2 2 2 2 2 2 2 2 2 2 2 2 2 2 2 2 2 2 2 2 2 2 2 2
left_child=1 4 14 5 7 6 10 -1 -9 11 19 23 20 16 22 25 -5 18 21 -4 -8 -18 -3 -10 -6 26 27 -12 -29 -24
right_child=-2 2 3 13 24 -7 12 8 9 -11 15 -13 -14 -15 -16 -17 17 -19 -20 -21 -22 -23 29 -25 -26 -27 -28 28 -30 -31
leaf_value=0.056317008617387587 0.061376975177666375 0.047890892075036197 -0.0099269883159106165 0.059357310391108531 0.046043033544912557 0.039599400938994112 -0.0085087750929380077 0.058468140563021256 0.0079728556530724946 0.04211736927405129 0.03587623753213063 0.037187838186687187 0.034720580562087183 0.052680280396426638 0.074775660885750578 0.062995002013371257 0.031596778357723537 0.048048226612242638 0.048790430260128942 0.016725439219457086 0.033092672153877442 0.00047278347365602039 0.048734103755521126 0.041881393331911237 0.064652887826749827 0.076687248315139803 0.053563753633103089 0.0033681727260611604 0.06291560370762804 0.020917260484551187
leaf_count=2734 4698 4262 3099 730 4449 2656 9471 1558 7222 4561 1629 2713 841 2101 480 573 1532 1126 745 3983 624 3812 1179 868 3396 215 633 4196 219 3694
internal_value=0 0.652518 0.52103 0.416567 0.845945 0.295354 0.223275 0.719175 0.62893 0.554062 0.379835 0.399747 -0.0169352 0.69609 0.830527 0.584826 0.562758 0.477039 0.348202 0.12367 -0.102298 0.222091 0.771252 0.250372 1.09995 0.497827 0.442409 0.342064 0.159854 0.579895
internal_count=79999 75301 47800 38185 27501 28139 25483 19656 16922 15364 14547 10803 10936 10046 9615 7465 7945 7215 6089 7082 10095 5344 9135 8090 7845 6892 6677 6044 4415 4873
shrinkage=0.05


Tree=19
num_leaves=31
num_cat=0
split_feature=81 174 92 53 13 78 166 164 110 170 99 133 33 154 192 1 40 122 6 110 198 0 115 1 179 40 198 123 149 144
split_gain=746.102 644.959 652.556 586.028 618.372 561.662 497.259 397.205 336.936 281.709 248.019 233.221 214.508 206.119 194.941 225.211 191.151 178.852 180.479 177.027 158.228 153.916 135.848 134.498 131.106 123.729 121.514 119.672 118.983 130.375
threshold=11.344800000000001 9.9515000000000011 5.3697500000000007 7.3676500000000011 1.4071500000000003 8.4015500000000021 2.7845500000000007 5.3325000000000005 7.3754500000000007 7.2289500000000011 1.6579500000000003 6.8906500000000008 8.0418500000000019 -0.66854999999999987 0.63075000000000014 4.1602500000000004 4.122650000000001 -6.7922999999999991 6.6418500000000007 11.785250000000003 14.635950000000003 14.787550000000001 1.3536500000000002 3.4665500000000002 7.0650000000000004 -6.4676999999999998 11.786050000000001 -3.8909499999999997 0.58440000000000014 9.9576500000000028
decision_type=2 2 2 2 2 2 2 2 2 2 2 2 2 2 2 2 2 2 2 2 2 2 2 2 2 2 2 2 2 2
left_child=-1 25 -3 4 -4 6 10 8 9 11 12 20 -6 -14 -15 16 21 -10 19 23 -8 24 -13 -19 -16 -2 -9 -24 29 -22
right_child=1 2 3 -5 5 -7 7 26 17 -11 -12 22 13 14 15 -17 -18 18 -20 -21 28 -23 27 -25 -26 -27 -28 -29 -30 -31
leaf_value=0.05290123764451117 0.040554242806231648 0.061019140933771469 0.050143381859311734 0.056201749849678684 0.060929340120588073 0.049964331074124867 0.0052348924806263457 0.082957222750720969 0.055886137667147007 0.03952926324351623 0.05316996784493086 0.023593201630792274 0.055579341585100452 0.038083841715386833 -0.0017411084767240425 0.049953002799678091 0.041406265075745019 0.0022324723406695816 0.048004417027069722 0.034962843610461598 -0.0083771245323696186 0.036485507690862486 0.052743645511308918 0.03733351898785086 0.038583274327054717 0.061455402255906635 0.035182328617431029 -0.0017043338812072059 -0.024920178562960121 0.053546154981691178
leaf_count=6641 2709 2682 4120 2655 781 3147 4616 198 689 1216 1805 3540 932 2852 8332 891 1028 6776 865 1698 2655 874 225 806 513 2772 1891 5746 6111 233
internal_value=0 0.59917 0.547283 0.508297 0.467807 0.415408 0.367522 0.244206 0.190183 0.0598512 0.584717 0.00502859 0.507656 0.455555 0.397326 0.289367 0.206363 0.427483 0.360393 0.274897 -0.164804 0.116544 0.214963 0.139492 0.032612 1.04713 0.865085 0.0341963 -0.327168 -0.0192398
internal_count=79999 73358 67877 65195 62540 58420 55273 37265 35176 24342 18008 23126 16203 15422 14490 11638 10747 10834 10145 9280 13615 9719 9511 7582 8845 5481 2089 5971 8999 2888
shrinkage=0.05


Tree=20
num_leaves=31
num_cat=0
split_feature=146 44 81 22 33 18 80 12 1 6 87 6 173 148 115 71 121 174 36 148 191 89 179 94 184 174 174 21 99 116
split_gain=862.349 676.91 617.476 458.015 405.813 442.076 362.985 252.601 246.53 238.861 225.684 205.899 199.857 193.548 184.968 171.87 167.477 172.433 168.115 165.264 159.286 149.728 149.603 148.449 144.904 140.353 138.109 137.501 137.11 136.277
threshold=7.9155000000000006 2.7869500000000005 13.202000000000002 9.4806000000000008 7.2775500000000006 27.905750000000001 2.8493500000000007 13.878150000000002 5.3035000000000005 6.2956500000000011 11.320700000000002 5.5576500000000006 7.3493500000000012 3.8410500000000005 0.21525000000000002 1.0287500000000003 8.8964500000000015 7.2293500000000011 -1.4520999999999997 3.9210500000000006 10.908450000000002 9.4119500000000027 6.5531500000000014 9.9684500000000025 11.874200000000002 6.3024500000000012 22.844250000000006 2.8274500000000002 -0.33024999999999993 2.8538500000000004
decision_type=2 2 2 2 2 2 2 2 2 2 2 2 2 2 2 2 2 2 2 2 2 2 2 2 2 2 2 2 2 2
left_child=11 13 9 4 -4 6 10 26 14 12 20 23 16 -2 27 25 -3 -18 -19 -20 29 -12 -21 -1 -15 -16 -8 -9 -25 -6
right_child=1 2 3 -5 5 -7 7 8 -10 -11 21 -13 -14 24 15 -17 17 18 19 22 -22 -23 -24 28 -26 -27 -28 -29 -30 -31
leaf_value=0.024393933520251716 0.06137749381103106 0.057094616631067255 0.056536847424751735 0.053450154081291439 0.036663582677121678 0.047909492496190864 0.028982553855088678 0.067511063540331914 0.042797648378506643 0.0555685183607251 0.0064028379393564101 0.056645115686175501 0.058304320544366878 0.026458993074789008 0.036886556831809671 0.020378368129525513 0.064090310099365208 0.046366208753976207 0.031268339286443882 0.0026806165390441516 0.060793586738249895 0.053050296202461357 0.046598971731574332 0.034351805343880437 0.047839760649677723 -0.015512000589460543 0.00040193161934288482 0.0077041320423354501 0.05879727139266358 0.010272889822320552
leaf_count=2866 2339 786 1220 1653 3377 2084 3314 181 743 2285 6291 5979 1076 3680 304 1340 385 1214 2945 4864 855 419 437 2746 4007 12427 1954 3822 1987 2419
internal_value=0 0.556088 0.479061 0.362885 0.317271 0.279922 0.228886 0.087958 -0.0258263 0.736656 0.445747 0.95751 0.63726 0.904973 -0.0789929 -0.190575 0.562699 0.497608 0.442548 0.349614 0.649694 0.209209 0.158216 0.784752 0.77326 -0.267853 0.39634 0.255246 0.93082 0.537705
internal_count=79999 66421 56395 42403 40750 39530 37446 24085 18817 13992 13361 13578 11707 10026 18074 14071 10631 9845 9460 8246 6651 6710 5301 7599 7687 12731 5268 4003 4733 5796
shrinkage=0.05


Tree=21
num_leaves=31
num_cat=0
split_feature=53 146 148 179 109 22 33 86 40 155 110 76 165 109 12 170 76 110 169 26 34 56 170 40 121 53 172 40 173 169
split_gain=789.749 795.547 568.616 508.002 373.78 370.123 364.273 306.306 302.808 267.839 228.147 222.925 187.497 183.673 177.082 175.067 173.682 168.042 165.449 170.902 152.282 151.767 148.679 156.087 148.675 141.323 139.962 138.799 116.088 130.12
threshold=7.024350000000001 8.2647000000000013 3.7897500000000002 5.2113500000000004 11.36425 9.4806000000000008 7.6251000000000007 -1.5407499999999998 6.8234500000000011 7.6620500000000016 9.4490500000000015 2.0798000000000005 11.774700000000001 13.012950000000002 13.988550000000002 4.3039000000000005 -1.2304999999999997 8.6678500000000014 5.2680500000000006 0.67075000000000007 11.111950000000002 13.343050000000002 6.7569500000000007 -4.3550499999999994 8.7725500000000025 7.5333500000000013 8.3394500000000011 -9.4660499999999974 -1.8581999999999999 5.9420500000000009
decision_type=2 2 2 2 2 2 2 2 2 2 2 2 2 2 2 2 2 2 2 2 2 2 2 2 2 2 2 2 2 2
left_child=1 10 14 4 -4 6 -6 17 9 11 13 21 -13 -1 -3 26 -15 27 -5 20 -20 -9 23 -18 -16 -2 -14 -8 -23 -30
right_child=25 2 3 18 5 -7 7 8 -10 -11 -12 12 15 16 24 -17 22 -19 19 -21 -22 28 -24 -25 -26 -27 -28 -29 29 -31
leaf_value=0.059622790801876081 0.043092093343860167 0.049389006399799651 0.046536885147511406 0.056829603976821436 0.046515968899253982 0.04604847469759251 -0.0052414221880354751 0.032591459826850973 0.035775311188885647 0.035750837353968203 0.05905415789698383 0.023125614720338319 0.012195614383200794 0.050733267504087215 0.068844568539319903 0.0093682232058680502 0.015396468478233647 0.046484240131848188 0.040512423808648154 0.049991872138064483 0.011438390814718657 -0.010607607067021055 0.060382060193411781 0.037081257906230312 0.024232041501203887 0.062153323436415567 -0.018546033723494289 0.025884644546188346 0.020231241877258364 -0.021797696372777148
leaf_count=1244 4713 3974 1680 1380 1413 1488 1852 1517 1616 1327 2363 1242 1320 2071 348 2849 5205 1282 1608 1470 3687 2887 555 3463 4853 2540 13050 3134 3053 815
internal_value=0 0.545929 0.448617 0.367588 0.280587 0.238156 0.19554 0.154131 0.0722229 0.020379 0.835768 -0.0255101 -0.148652 0.742578 0.780939 -0.208445 0.669451 0.484096 0.711524 0.597962 0.44074 0.204172 0.564688 0.501924 0.574118 1.02069 -0.303082 0.316772 0.0809301 0.264558
internal_count=79999 72746 57845 48670 40525 38845 37357 35944 29676 28060 14901 26733 18461 12538 9175 17219 11294 6268 8145 6765 5295 8272 9223 8668 5201 7253 14370 4986 6755 3868
shrinkage=0.05


Tree=22
num_leaves=31
num_cat=0
split_feature=2 33 92 12 40 81 26 94 191 164 165 149 109 99 18 94 0 115 86 0 22 94 127 81 180 22 9 5 118 180
split_gain=837.314 533.91 501.339 481.734 461.428 427.526 365.379 337.822 319.6 300.382 275.881 275.112 191.031 177.194 172.011 155.732 154.668 151.241 149.179 149.081 154.615 144.527 141.727 137.75 155.708 124.894 140.857 131.614 118.76 135.127
threshold=12.078950000000003 8.5162500000000012 4.5591500000000016 13.783950000000003 5.1624500000000006 11.424400000000002 6.6193500000000016 14.891550000000002 12.227250000000002 4.5485500000000014 18.831250000000001 4.3703500000000011 10.733850000000002 0.76595000000000002 26.743050000000004 16.405100000000004 15.732450000000002 0.21525000000000002 -2.7665999999999999 14.033700000000001 8.8251500000000025 9.8953500000000023 2.0314500000000004 11.692450000000003 -0.98694999999999988 3.8935500000000007 5.4457500000000012 8.3245000000000022 2.1998000000000002 4.4876500000000012
decision_type=2 2 2 2 2 2 2 2 2 2 2 2 2 2 2 2 2 2 2 2 2 2 2 2 2 2 2 2 2 2
left_child=1 -1 -3 19 5 -5 7 8 9 11 21 14 -13 15 17 16 18 -7 -12 20 -4 -2 -15 -20 -25 -14 -27 -28 29 -19
right_child=10 2 3 4 -6 6 -8 -9 -10 -11 13 12 25 22 -16 -17 -18 28 23 -21 -22 -23 -24 24 -26 26 27 -29 -30 -31
leaf_value=0.048159749724538056 0.035752992599193074 0.06210378533089727 0.027841899415947918 0.034769414172733375 0.040618023477264301 0.020312872051173506 0.040524227501102711 0.031847400667524277 0.034038592280525796 0.027104919434719866 0.043525334911253745 0.036511655976015661 -0.023401253189103251 0.056856314934505749 0.037740053297713447 0.074004593404071894 0.056173497699085299 -0.012252706888290034 0.041766408548003064 0.062481354634893675 0.072153480868760597 0.052508744905030519 0.022622334734843163 0.0015858073911708525 0.026624703164309777 0.043946522928945006 -0.011635273279013827 0.042042537053820168 0.016285582103829448 0.029173278027769783
leaf_count=3673 4293 1201 4138 3533 3451 2859 1721 2936 2046 2513 1342 457 6851 1759 1017 241 600 6864 813 725 276 7420 1040 4640 2800 318 7583 307 1970 612
internal_value=0 0.452413 0.402548 0.37128 0.305683 0.248087 0.180767 0.133749 0.075285 0.0239778 0.788827 -0.0371507 -0.216293 0.629874 0.143879 0.524861 0.485525 0.0771492 0.424619 0.770144 0.650575 0.940621 0.93198 0.332547 0.241581 -0.263626 -0.113155 -0.173858 -0.0436598 -0.15921
internal_count=79999 55051 51378 50177 45038 41587 38054 36333 33397 31351 24948 28838 15516 13235 13322 10436 10195 12305 9595 5139 4414 11713 2799 8253 7440 15059 8208 7890 9446 7476
shrinkage=0.05


Tree=23
num_leaves=31
num_cat=0
split_feature=6 109 81 170 146 166 198 115 95 0 130 12 26 78 34 180 94 155 1 195 0 40 1 133 139 192 52 99 81 40
split_gain=766.465 476.981 391.877 375.927 351.5 340.762 319.129 299.589 296.301 266.278 235.273 235.826 216.098 216.359 179.624 173.906 169.153 161.806 155.793 163.489 149.849 149.162 148.453 138.068 134.961 134.374 150.864 133.516 130.394 119.887
threshold=5.5576500000000006 13.431350000000002 11.496250000000002 6.6135500000000009 6.8397500000000013 2.3402500000000006 11.210850000000001 0.86535000000000006 0.5988500000000001 12.197450000000002 13.739800000000001 13.824950000000001 0.22020000000000003 7.3977500000000012 10.472100000000003 7.3468500000000008 15.087050000000001 9.158850000000001 4.9891500000000013 0.23445000000000002 14.874950000000002 -1.3237999999999996 1.9834500000000002 7.1279500000000011 -0.5149999999999999 2.3918500000000003 4.2638500000000006 -3.2345499999999996 13.009950000000002 -1.6043499999999999
decision_type=2 2 2 2 2 2 2 2 2 2 2 2 2 2 2 2 2 2 2 2 2 2 2 2 2 2 2 2 2 2
left_child=1 21 -3 4 -2 -4 -6 18 9 12 11 -9 13 22 -13 16 17 20 19 -7 25 27 23 -8 -11 -16 -27 -1 -26 -30
right_child=3 2 5 -5 6 7 8 10 -10 24 -12 14 -14 -15 15 -17 -18 -19 -20 -21 -22 -23 -24 -25 28 26 -28 -29 29 -31
leaf_value=-0.025535828991178178 0.053320428697983896 0.036900289769968481 0.043207578171447367 0.059127797251077141 0.054071597870101351 0.0094681649788331372 -0.0068067793223490734 0.021235694627058394 0.045168948420838323 0.054298302290851932 0.044572320959433212 0.035283492954955663 0.032143143010287194 0.033256214183476296 -0.0070041697485021598 0.039138276797088228 0.022345528876961968 0.034971913715008685 0.056818536132669795 0.030914397654800915 0.014868137701241138 0.055950623755582518 0.02439509114145802 0.019818510059409111 0.046325716173111098 -0.032250119263032333 0.016399327524256224 0.034041810399869095 0.0132740672628998 0.039998558705471622
leaf_count=354 2812 3523 1683 2342 1989 6055 6659 3359 3772 1103 794 728 3822 2016 9464 579 1298 525 544 3998 1460 1505 2054 1685 1396 5203 557 3736 3577 1407
internal_value=0 0.392291 0.31939 0.69938 0.649594 0.253683 0.590073 0.208353 0.537685 0.465362 0.0921556 0.0532111 0.338742 0.219989 -0.034867 -0.0765018 -0.113195 -0.170285 0.433275 0.376528 -0.20904 0.778635 0.107039 -0.00652333 0.690198 -0.273427 -0.52058 0.615625 0.589 0.445036
internal_count=79999 45365 39770 34634 32292 36247 29480 34564 27491 23719 23967 23173 16236 12414 19814 19086 18507 17209 10597 10053 16684 5595 10398 8344 7483 15224 5760 4090 6380 4984
shrinkage=0.05


Tree=24
num_leaves=31
num_cat=0
split_feature=139 18 164 165 99 33 191 133 12 93 12 119 40 86 91 180 82 169 13 1 33 56 173 102 110 127 40 67 130 148
split_gain=691.383 515.142 446.551 419.541 383.911 379.893 357.436 318.103 292.87 288.025 260.47 226.166 215.451 206.125 203.168 195.547 175.333 172.936 169.518 170.019 165.849 165.434 165.123 159.041 158.027 148.179 155.053 145.605 139.227 139.793
threshold=3.0801000000000003 27.662300000000005 6.3471000000000011 11.927250000000003 2.0135500000000004 7.2775500000000006 12.587850000000001 7.2172500000000008 13.988550000000002 9.8244500000000023 13.747350000000003 10.194700000000003 7.1671500000000004 -8.4690999999999992 7.256450000000001 4.4876500000000012 11.219650000000001 5.0588500000000005 -0.61794999999999989 5.1390000000000002 9.939350000000001 12.689600000000002 9.3616500000000027 8.0864000000000029 10.260650000000002 -4.1403499999999989 2.1115000000000008 15.945250000000001 13.417650000000002 3.7246500000000005
decision_type=2 2 2 2 2 2 2 2 2 2 2 2 2 2 2 2 2 2 2 2 2 2 2 2 2 2 2 2 2 2
left_child=9 2 3 -2 5 -5 7 8 14 -1 -11 12 13 -12 16 18 22 -10 -15 20 -20 -22 25 -19 -23 -7 28 -25 29 -27
right_child=1 -3 -4 4 -6 6 -8 -9 17 10 11 -13 -14 15 -16 -17 -18 23 19 -21 21 24 -24 27 -26 26 -28 -29 -30 -31
leaf_value=0.057396470287305407 0.038995928182403945 0.0471856122387019 0.047918492668413144 0.047330691564747923 0.036537862400351083 0.035757572057604443 0.039679447956688672 0.024126533664071401 0.026144045259126093 0.055288423556019844 0.056317158922531044 0.062133710383227361 0.055779373897984201 0.059865365630873912 0.051825380530568267 0.046465791516988833 0.051849867173058423 0.026409351098591834 0.035384374845761478 0.050884614757334037 0.033153610452249009 0.0036993562538348689 0.043997160603699931 -0.014149721383298668 0.032118149939311176 0.021935821351750696 0.023723832252615065 0.0039300593965018484 0.028345066965694762 -0.0091809500942284551
leaf_count=2112 3852 3334 2107 1366 3497 874 2133 5876 1218 1577 809 773 908 357 582 1460 504 983 1885 646 1679 9070 622 12731 1124 999 1842 5308 880 8891
internal_value=0 0.40631 0.361986 0.324508 0.2755 0.225811 0.191366 0.150723 0.0806431 0.71353 0.653673 0.594495 0.553964 0.506616 0.24937 0.462104 0.201428 -0.0730374 0.402068 0.367562 0.323393 0.245551 0.160078 -0.122134 0.159606 0.11264 0.0584264 -0.166917 -0.0311179 -0.0990963
internal_count=79999 57599 54265 52158 48306 44809 43443 41310 35434 22400 20288 18711 17938 17030 15194 16221 14612 20240 14761 14404 13758 11873 14108 19022 10194 13486 12612 18039 10770 9890
shrinkage=0.05


Tree=25
num_leaves=31
num_cat=0
split_feature=44 53 174 6 81 33 121 139 35 190 34 1 18 108 147 81 174 6 188 148 95 177 191 99 139 190 162 164 1 108
split_gain=726.783 632.734 584.744 573.723 364.639 356.997 318.821 300.915 227.423 218.061 211.567 195.429 183.66 183.116 184.554 179.366 169.394 159.738 154.071 141.129 135.942 135.566 127.777 124.593 132.827 122.297 114.222 119.534 109.07 110.264
threshold=2.7869500000000005 7.4212000000000007 8.2925500000000003 5.5779500000000004 12.641500000000002 8.0418500000000019 8.630250000000002 2.9861000000000009 11.484450000000001 6.1125000000000016 10.647850000000002 3.9693500000000004 26.009100000000004 13.950350000000002 0.80630000000000013 14.080850000000002 22.844250000000006 6.9000500000000011 8.2052500000000013 3.9550500000000004 0.17245000000000002 15.343050000000002 9.6472500000000014 2.2119500000000003 3.3681500000000004 8.4451500000000017 7.2615500000000006 4.9023000000000012 4.4687500000000009 14.256950000000002
decision_type=2 2 2 2 2 2 2 2 2 2 2 2 2 2 2 2 2 2 2 2 2 2 2 2 2 2 2 2 2 2
left_child=16 2 -2 5 -5 -4 -7 15 10 12 -6 13 18 -12 17 -8 28 19 -9 -15 -20 26 -16 24 -18 -26 27 -11 29 -1
right_child=1 -3 3 4 8 6 7 9 -10 21 11 -13 -14 14 22 -17 23 -19 20 -21 -22 -23 -24 -25 25 -27 -28 -29 -30 -31
leaf_value=0.049955248206832122 0.046030845089285094 0.050165736386968231 0.039573156189562059 0.040538058818506757 0.041621026080190554 0.037952668500855741 0.02935693762431927 0.031432722199409069 0.045141725364718867 0.0063529136357045246 0.041693551301642762 0.038632636853683483 0.01986266218699086 0.0087107840306657348 0.012941100011945528 0.0065593582134166988 0.040407388476252623 0.026002732176082434 -0.019658797597921499 -0.012793246848309989 -0.00072841147092574522 -0.028756371592602904 0.041849926911605696 0.063848128168126586 0.003704167251200131 0.046071997532317208 0.046411034203563649 0.048616585350621688 0.070025336716047604 0.032311457513024194
leaf_count=3985 3109 2700 1799 4774 1551 1660 3247 543 1573 4721 948 1534 1520 4162 3631 5592 1275 1322 10066 5586 4950 714 1157 281 2545 393 549 350 530 3232
internal_value=0 0.412167 0.372185 0.329665 0.495851 0.181313 0.133725 0.0890243 0.390353 -0.0290234 0.336376 0.279035 -0.147358 0.219654 0.16956 0.328495 0.795784 0.0385789 -0.216311 -0.0525547 -0.258315 0.229428 0.425623 0.554285 0.466458 0.244359 0.304675 0.21522 0.911611 0.857102
internal_count=79999 67758 65058 61949 26238 35711 33912 32252 21464 23413 19891 18340 17079 16806 15858 8839 12241 11070 15559 9748 15016 6334 4788 4494 4213 2938 5620 5071 7747 7217
shrinkage=0.05


Tree=26
num_leaves=31
num_cat=0
split_feature=146 174 173 76 110 92 121 133 33 186 36 76 12 167 131 174 123 130 13 169 149 21 123 119 121 92 71 12 169 147
split_gain=663.34 547.737 517.014 517.046 379.293 241.483 234.154 227.013 197.005 207.002 163.691 163.208 162.118 150.587 156.739 162.353 183.368 146.024 143.291 137.806 137.301 136.168 153.357 129.424 121.561 121.446 136.436 130.157 121.098 116.178
threshold=7.658850000000001 8.8317500000000013 5.6895000000000016 0.87460000000000016 10.018850000000002 8.4131000000000018 8.5763000000000016 7.1334500000000007 8.1717000000000013 4.608200000000001 -2.1141499999999995 -6.0566999999999993 13.740850000000002 5.769750000000001 -0.38909999999999995 26.72315 -1.1791499999999997 13.363150000000003 9.2565500000000025 5.5922500000000008 4.5881500000000015 9.5280500000000021 5.6141000000000014 8.2661000000000016 8.8964500000000015 8.2214500000000026 0.77345000000000008 13.807550000000001 5.7386500000000007 -4.2781999999999991
decision_type=2 2 2 2 2 2 2 2 2 2 2 2 2 2 2 2 2 2 2 2 2 2 2 2 2 2 2 2 2 2
left_child=11 -2 3 6 5 23 -3 8 -7 -10 -8 -1 -11 14 -14 16 -16 28 -6 24 -12 -13 -23 -5 -18 -22 27 -27 -4 -24
right_child=1 2 17 4 18 7 10 -9 9 12 20 21 13 -15 15 -17 19 -19 -20 -21 25 22 29 -25 -26 26 -28 -29 -30 -31
leaf_value=0.061379853051408133 0.043096539128765529 0.060435178016749115 0.03638298701802322 0.015258966016257692 0.036983551562356769 0.026472095380559141 0.04693758157647801 0.015675148247404746 0.020213172642448367 0.016737204523049467 0.028207171230497458 0.049245796217600168 0.039423714524382064 0.011581203871449225 0.019409257983763847 -0.033703698166995547 0.037743373085380789 0.057568702407955454 0.011596937799297883 -0.024403199216096582 0.035234846026357701 0.040835358930045917 0.007549049925240703 0.050395840492747805 -0.0085508995781077898 0.030855572065463084 0.021964945976922303 -0.012601379164693356 0.017507859485577766 0.030744870428467672
leaf_count=856 3894 682 5227 5044 2803 1271 1229 5973 2027 1391 5912 1994 318 2015 1224 3746 362 904 2275 6470 960 3618 2296 593 5045 412 2023 3075 3430 2930
internal_value=0 0.389334 0.346056 0.279701 0.174401 0.101483 0.521663 0.03426 -0.0498437 -0.0956232 0.466278 0.753619 -0.155771 -0.209554 -0.271188 -0.301628 -0.209342 0.663652 0.542273 -0.290409 0.405437 0.697592 0.611364 0.405892 -0.081244 0.23395 0.127554 -0.093732 0.593036 0.434701
internal_count=79999 68305 64411 54850 40557 35479 14293 29842 23869 22598 13611 11694 20571 19180 17165 16847 13101 9561 5078 11877 12382 10838 8844 5637 5407 6470 5510 3487 8657 5226
shrinkage=0.05


Tree=27
num_leaves=31
num_cat=0
split_feature=179 177 78 110 174 172 94 170 33 94 163 139 118 67 89 139 22 133 75 107 13 99 122 22 154 99 121 135 90 13
split_gain=649.54 635.846 583.964 558.274 503.87 329.172 296.802 280.334 238.565 207.35 205.248 208.733 205.136 190.481 162.212 154.063 149.918 149.109 149.014 139.331 142.185 133.526 132.246 131.611 130.831 120.008 119.101 130.487 138.694 115.577
threshold=5.952300000000001 7.4037500000000014 8.7712000000000021 9.5142500000000023 22.501600000000003 9.4387000000000025 15.491350000000002 5.6825500000000009 7.2775500000000006 12.568050000000001 19.768350000000002 -2.2972499999999996 10.862400000000003 15.684100000000003 9.8688500000000019 -0.94034999999999991 10.445450000000003 7.0878500000000004 8.2241500000000016 2.6675000000000004 0.81585000000000008 -0.11804999999999999 -5.4298499999999992 8.6287000000000003 1.7679000000000002 -0.75774999999999992 8.7725500000000025 4.9366000000000012 0.88930000000000009 3.6018500000000002
decision_type=2 2 2 2 2 2 2 2 2 2 2 2 2 2 2 2 2 2 2 2 2 2 2 2 2 2 2 2 2 2
left_child=1 -1 3 4 5 -3 7 8 -7 10 11 -6 13 14 23 -5 19 -2 -11 -13 -21 -15 -22 26 -24 -20 -10 28 -28 -17
right_child=17 2 -4 15 9 6 -8 -9 12 18 -12 16 -14 21 -16 29 -18 -19 25 20 22 -23 24 -25 -26 -27 27 -29 -30 -31
leaf_value=0.050808579041238512 0.033147692858889181 0.036549845670292569 0.047949002974132085 0.048910929771449979 0.019021929145150024 0.044038978061673291 0.043267664160919386 0.033753271633844041 0.022535249516536199 0.047754689438746029 0.030619395979353387 0.048652957646471574 0.044462148185224475 0.0064935581454520887 0.031664601428272404 0.043175763974757406 0.041231416754219069 0.052730708792626362 -0.0042938938678784254 0.02031152277631422 0.0082457896475619449 0.028349515185739384 9.928035039854751e-05 0.02378687647242797 -0.02719397721369355 0.019063312636337374 -0.014239486049592444 0.015160916083228821 0.015869992585993142 0.021956881595595865
leaf_count=2484 6956 4122 2408 1327 1417 810 1482 2734 890 530 867 171 729 4773 861 1440 231 2155 3179 609 1195 2806 1676 984 9007 3072 11025 1524 1198 7337
internal_value=0 0.375783 0.340676 0.305451 0.232268 0.349341 0.283605 0.238023 0.176225 0.0213136 -0.100367 -0.160478 0.138989 0.107333 -0.00262597 0.606176 -0.247822 0.775935 0.255338 -0.284572 -0.314696 0.316359 -0.369606 -0.0495969 -0.443736 0.169845 -0.0991366 -0.146009 -0.214221 0.522771
internal_count=79999 70888 68404 65996 55892 33938 29816 28334 25600 21954 15173 14306 24790 24061 16482 10104 12889 9111 6781 12658 12487 7579 11878 15621 10683 6251 14637 13747 12223 8777
shrinkage=0.05


Tree=28
num_leaves=31
num_cat=0
split_feature=2 44 80 53 33 67 166 146 80 139 191 121 94 94 5 174 198 114 133 122 12 12 157 141 114 130 148 165 60 24
split_gain=717.439 638.662 479.084 297.26 289.48 285.577 278.269 242.928 229.706 231.803 217.937 194.475 188.421 175.821 163.922 170.261 156.285 145.82 147.641 142.688 131.973 129.981 128.072 144.904 125.633 140.483 120.623 118.428 115.975 114.487
threshold=12.078950000000003 3.0362500000000003 2.8493500000000007 7.2898500000000004 7.2775500000000006 15.684100000000003 2.4172500000000006 8.5064500000000027 -8.008499999999998 2.9861000000000009 8.8235500000000027 8.8533000000000026 16.069850000000006 15.087050000000001 9.7516500000000033 9.5454500000000024 11.704500000000001 2.0263500000000003 7.1175500000000005 -3.0638999999999994 13.984550000000002 14.008050000000003 1.8285000000000002 -7.2029999999999985 1.9388500000000002 11.894850000000002 3.9368500000000002 19.097050000000007 22.175950000000004 8.5247500000000027
decision_type=2 2 2 2 2 2 2 2 2 2 2 2 2 2 2 2 2 2 2 2 2 2 2 2 2 2 2 2 2 2
left_child=1 16 8 4 -4 10 -6 -8 -3 -10 12 -9 19 14 15 -13 -1 -11 21 -2 -21 29 23 -17 -18 -26 -12 -7 -25 -19
right_child=5 2 3 -5 6 27 7 11 9 17 26 13 -14 -15 -16 22 24 18 -20 20 -22 -23 -24 28 25 -27 -28 -29 -30 -31
leaf_value=0.057076986372519234 0.03117304835902315 0.043467126899491226 0.039669604681938378 0.033192199170404134 0.026430727681273337 0.049052189315697457 0.010625029366574496 0.019889414996738852 0.031014234233659468 0.031306555615562698 0.047300945249045517 0.013129451701487525 0.059984360897955169 0.016664409396902561 0.031815754964664177 0.010857184145622322 0.049378517095533148 -0.013412242235162533 0.023836119426732617 0.021131423142260478 0.0014352894290379004 -0.012854263079002011 0.0024864947377461724 -0.027103225753416088 0.0086891076500810998 0.031700538885454023 0.026371879154446234 0.031972811785456877 0.041646050114582035 0.020209398630416851
leaf_count=814 2471 1755 870 1500 1871 3749 5795 1368 4021 1562 2202 1080 360 1275 446 858 1065 1133 1955 3667 5095 3929 1800 12506 2507 4577 3423 3981 152 2212
internal_value=0 0.301774 0.215495 0.078696 0.0292071 0.609883 -0.0108167 -0.068175 0.419864 0.345487 0.495242 -0.174645 0.366749 -0.23229 -0.290349 -0.326778 0.647458 0.202407 0.113641 0.319832 0.216877 -0.0132161 -0.388609 -0.457704 0.573502 0.491945 0.718518 0.823164 -0.516486 0.211159
internal_count=79999 55051 46088 29521 28021 24948 27151 25280 16567 14812 17218 19485 11593 18117 16842 16396 8963 10791 9229 11233 8762 7274 15316 13516 8149 7084 5625 7730 12658 3345
shrinkage=0.05


Tree=29
num_leaves=31
num_cat=0
split_feature=81 109 166 0 184 169 13 86 190 34 162 80 78 148 164 94 56 170 190 184 177 191 13 95 163 18 132 85 147 165
split_gain=631.154 579.951 552.894 532.664 454.12 320.25 313.14 271.683 275.797 251.068 210.287 193.964 174.196 164.225 158.163 155.783 163.547 170.877 149.432 149.229 147.704 136.953 138.511 134.54 127.522 126.526 124.912 114.064 112.22 109.152
threshold=11.496250000000002 11.836000000000002 2.3054500000000004 15.367900000000002 10.295250000000001 5.7097500000000005 4.3407500000000008 -1.4281499999999998 7.3847500000000013 10.673950000000003 6.9574500000000006 -10.032999999999999 8.0484000000000027 3.7649500000000002 6.6305000000000005 16.405100000000004 12.926150000000002 1.6350500000000003 9.6544000000000008 27.829050000000006 7.004150000000001 12.123250000000002 -0.61794999999999989 0.026650000000000004 6.4314000000000009 27.905750000000001 4.6459000000000001 15.367850000000002 4.814350000000001 13.415600000000001
decision_type=2 2 2 2 2 2 2 2 2 2 2 2 2 2 2 2 2 2 2 2 2 2 2 2 2 2 2 2 2 2
left_child=28 -2 -3 4 6 7 -4 -6 12 -8 15 -7 14 -13 20 16 -11 27 19 23 -9 22 -22 -15 -10 -25 -19 -18 -1 -24
right_child=1 2 3 -5 5 11 9 8 24 10 -12 13 -14 18 -16 -17 17 26 -20 -21 21 -23 29 25 -26 -27 -28 -29 -30 -31
leaf_value=0.033182026010522191 0.041132039660268779 0.043315636779851639 0.018350637156364903 0.035626592170958447 0.039473870969478575 0.052340422492332977 0.024001641643308511 0.053383047369812059 0.0022478485337095542 0.0070072521698987325 0.014162181410510814 0.02431130479078816 0.037890165322282732 -0.015420553545731342 0.045547340295111427 0.034312149092186307 -0.0081569084068725678 0.083170578971672168 0.026606601289914718 0.024081147369275604 0.04813207304869134 0.034286469419254749 0.019961550451815704 0.00049773457403314903 0.042091209003618346 0.054387481382646909 -0.0068637282221529917 -0.032721358520866967 0.053775288375441314 -0.0044160539368547028
leaf_count=6217 3926 2675 5320 4591 3716 354 1666 263 638 2426 2585 1989 1146 6210 447 376 2105 50 1085 1147 254 793 1363 4242 2487 215 4815 6366 1030 9502
internal_value=0 0.334507 0.293054 0.256546 0.209512 0.322711 0.0313264 0.445468 0.350943 -0.0753267 -0.143436 0.133222 0.236855 0.0939967 0.170055 -0.226793 -0.261289 -0.346769 0.0133198 -0.0535942 0.12194 0.0844533 0.0276159 -0.126724 0.71978 0.0940345 -0.0921783 -0.51758 0.73746 -0.0128438
internal_count=79999 72752 68826 66151 61560 35851 25709 20609 16893 20389 18723 15242 13768 14888 12622 16138 15762 13336 12899 11814 12175 11912 11119 10667 3125 4457 4865 8471 7247 10865
shrinkage=0.05


Tree=30
num_leaves=31
num_cat=0
split_feature=53 146 40 174 166 169 164 5 76 139 1 110 192 82 177 90 92 18 198 115 35 149 81 154 76 99 177 170 198 40
split_gain=621.649 586.529 447.165 460.342 432.134 401.78 254.229 258.277 258.726 203.504 210.715 182.966 170.212 163.474 153.549 144.172 139.575 132.436 128.171 138.547 127.324 126.012 131.822 122.416 120.987 116.057 107.566 105.492 105.016 103.705
threshold=7.024350000000001 8.2647000000000013 7.5222000000000007 9.5454500000000024 2.3402500000000006 5.7386500000000007 4.1177500000000009 8.7383500000000023 0.87460000000000016 -2.2972499999999996 -1.84995 9.4490500000000015 2.1512500000000006 9.9394000000000009 7.9071000000000007 6.435550000000001 4.3399500000000009 28.446050000000003 13.924350000000002 3.4792500000000004 11.955350000000001 -6.7189499999999986 14.895750000000001 8.1087000000000007 -0.76549999999999985 1.7012000000000003 7.1280500000000009 7.6266500000000006 12.158050000000001 -4.4461499999999994
decision_type=2 2 2 2 2 2 2 2 2 2 2 2 2 2 2 2 2 2 2 2 2 2 2 2 2 2 2 2 2 2
left_child=1 11 3 -3 -5 6 7 8 28 -7 20 12 24 14 -10 16 -16 21 19 -18 26 -12 -23 -14 -1 -24 -11 -20 -6 -26
right_child=-2 2 -4 4 5 9 -8 -9 13 10 17 -13 23 -15 15 -17 18 -19 27 -21 -22 22 25 -25 29 -27 -28 -29 -30 -31
leaf_value=0.047012615165289984 0.036730387521820243 0.032605443258071791 0.03892902342146401 0.035388090653735459 0.043399846802897185 0.01788079376572492 0.031289583670366279 0.04456362768730316 0.028297955581174289 0.028121852779205182 0.02196963998896858 0.043552888986124194 0.022519896504265564 0.031182870384583197 0.041153328475712542 0.033726704423919444 0.014982617660194684 0.04066221849705505 -0.014139000869340099 -0.019048859726516907 0.018541081894484945 0.0035889931408880148 -0.026929683321159699 -0.0015139329468517578 0.016305379145099285 0.02177215758161085 -0.025033181187094761 0.022522214182713444 0.015253119169391968 0.036209556521941098
leaf_count=1391 7253 3769 2645 2368 686 1949 2891 921 949 220 1113 2363 3094 964 321 589 2799 399 11522 1416 527 3789 3440 2333 3374 345 7789 509 5925 2346
internal_value=0 0.317938 0.235962 0.198219 0.148537 0.106541 0.223593 0.165105 0.127409 -0.094015 -0.165452 0.563653 0.481944 0.0154995 -0.0274799 -0.071775 -0.107315 0.011573 -0.136228 0.110056 -0.384013 -0.0433292 -0.136026 0.266896 0.619485 -0.40454 -0.453224 -0.239646 0.38516 0.512023
internal_count=79999 72746 57845 55200 51431 49063 29492 26601 25680 19571 17622 14901 12538 19069 18105 17156 16567 9086 16246 4215 8536 8687 7574 5427 7111 3785 8009 12031 6611 5720
shrinkage=0.05


Tree=31
num_leaves=31
num_cat=0
split_feature=2 44 80 177 34 108 173 87 180 21 169 80 174 114 106 75 148 146 192 9 106 5 122 148 78 188 173 40 49 99
split_gain=636.277 564.078 423.198 291.805 251.348 242.507 243.537 234.625 231.577 230.141 200.946 202.987 196.651 182.702 172.582 169.416 188.776 167.383 144.65 139.996 141.94 135.699 133.776 129.666 124.946 126.343 124.879 124.128 114.666 113.686
threshold=12.078950000000003 3.0362500000000003 2.8493500000000007 7.5370000000000008 10.709350000000002 13.923750000000002 8.9596000000000018 9.6765500000000024 6.478250000000001 8.8947500000000019 5.0232500000000009 3.8687500000000004 8.2925500000000003 1.2927500000000001 10.709250000000003 8.066650000000001 3.7932500000000005 8.7294500000000017 2.3602500000000002 7.8237500000000013 8.4459500000000016 9.7516500000000033 3.6322000000000005 3.9459500000000003 7.8508000000000004 12.976150000000002 3.2645500000000003 -3.9147499999999993 19.574500000000004 2.2119500000000003
decision_type=2 2 2 2 2 2 2 2 2 2 2 2 2 2 2 2 2 2 2 2 2 2 2 2 2 2 2 2 2 2
left_child=1 24 7 -4 -2 -5 8 26 12 -6 -11 23 -7 -14 21 -15 -17 -9 27 20 -18 22 -13 -12 25 -1 -3 -19 -22 -27
right_child=4 2 3 5 9 6 -8 17 -10 10 11 14 13 15 -16 16 19 18 -20 -21 28 -23 -24 -25 -26 29 -28 -29 -30 -31
leaf_value=0.038290438062571014 0.045841087169826787 0.021448890566524669 0.037037674890396798 0.03145932831796882 0.03870458682241569 0.022151966909079227 0.028417109581750949 0.025119152672779962 0.029345274026573904 0.048198051962904657 0.037526639142284719 0.010339964599092782 0.02614873112714719 0.014429383030220717 0.0324492747356823 0.0047408813291301734 -0.02208549934424324 -0.00050255593616025426 -0.013516638861105913 -0.02646869345956069 -0.011612069212784824 0.050852618825145912 -0.011719697955187593 0.017910186912044667 0.049497238005032446 0.014974855898180491 0.04329769778600321 0.026257092443932924 0.014475639828616903 0.050262514975500716
leaf_count=2336 2456 4793 1086 1206 3773 1154 1384 2571 1087 983 2950 5705 889 1651 1514 3381 4675 2862 2833 7841 3185 256 3040 4271 944 5321 1763 1745 1982 362
internal_value=0 0.248106 0.167106 0.0386347 0.537614 -0.00174332 -0.0412335 0.358673 -0.08485 0.481139 0.404234 0.359864 -0.125178 -0.168095 0.210571 -0.203356 -0.25163 0.196404 0.0557611 -0.335507 -0.197436 0.114839 0.0702741 0.541228 0.572085 0.502534 0.568141 0.222225 -0.0072081 0.372332
internal_count=79999 55051 46088 29521 24948 28435 27229 16567 25845 22492 18719 17736 24758 23604 10515 22715 21064 10011 7440 17683 9842 9001 8745 7221 8963 8019 6556 4607 5167 5683
shrinkage=0.05


Tree=32
num_leaves=31
num_cat=0
split_feature=81 12 18 114 26 180 170 22 40 139 177 34 131 107 174 40 67 174 169 80 34 198 127 110 80 172 148 34 133 56
split_gain=583.375 462.877 443.31 384.81 378.597 289.985 311.603 218.851 207.563 207.123 205.689 183.258 173.118 169.535 162.303 157.611 156.318 155.77 154.735 144.141 152.531 129.2 126.891 125.823 116.531 113.492 107.242 127.238 106.106 105.475
threshold=13.202000000000002 13.764350000000002 26.956250000000001 1.3424500000000001 0.14530000000000001 5.2205000000000004 4.439750000000001 9.6395500000000016 7.1671500000000004 1.9553500000000004 7.1280500000000009 10.752650000000001 -1.0000000180025095e-35 8.3327000000000009 8.2925500000000003 -6.740899999999999 17.098650000000003 23.190850000000001 5.7594500000000011 3.4048500000000002 10.673950000000003 14.861350000000002 -3.0217999999999994 9.2534500000000026 2.6838000000000002 25.659100000000006 3.7649500000000002 10.963150000000002 7.224050000000001 10.690350000000002
decision_type=2 2 2 2 2 2 2 2 2 2 2 2 2 2 2 2 2 2 2 2 2 2 2 2 2 2 2 2 2 2
left_child=9 21 3 -3 5 6 7 8 10 -1 -5 -11 -12 -13 -15 23 19 18 29 28 -21 -2 -22 -16 -17 -7 -8 -28 -6 -14
right_child=1 2 -4 4 16 25 26 -9 -10 11 12 13 17 14 15 24 -18 -19 -20 20 22 -23 -24 -25 -26 -27 27 -29 -30 -31
leaf_value=0.037711994768470501 0.042976462929418376 0.036781128954727405 0.033041355758289606 0.029051504002334024 0.016489072355417415 0.034562396051014417 0.039215727387507344 0.02727550204689877 0.021264374852010614 0.041356824836961924 0.0072293363546305084 0.039110902161275295 0.035654991850080441 0.045540725857320233 -0.0035597499025930486 0.033471505027836142 0.031542887515405814 -0.024587405429385163 -0.021181668078529985 0.040147188563016099 0.02790636189076455 0.021617248689778462 -0.008709983688695272 0.024910767269620621 0.012243684596804664 -0.0068083537405012988 0.031884036934685805 0.0021814085137093391 0.049338407514877586 -0.0041325401196580245
leaf_count=4695 1983 2200 3830 717 2812 1816 748 983 1367 1692 3313 1505 406 578 4692 2040 2863 8398 5521 439 651 3273 4347 959 3701 644 1037 3768 488 8533
internal_value=0 0.244506 0.191127 0.14445 0.109058 0.0175524 -0.0280085 -0.107933 -0.143904 0.531888 -0.185225 0.440349 -0.21785 0.374622 0.307115 0.256255 0.347484 -0.278376 -0.170421 0.232866 0.0531206 0.619995 -0.0518389 0.0584987 0.419733 0.525098 0.310796 0.207685 0.466882 -0.0343365
internal_count=79999 60137 54881 51051 48851 37251 34791 29238 28255 19862 26888 15167 26171 13475 11970 11392 11600 22858 14460 8737 5437 5256 4998 5651 5741 2460 5553 4805 3300 8939
shrinkage=0.05


Tree=33
num_leaves=31
num_cat=0
split_feature=78 191 130 148 174 67 86 192 36 114 94 167 94 150 92 12 89 180 175 12 161 177 154 58 191 78 97 163 141 92
split_gain=571.447 515.224 453.043 483.26 376.621 306.557 263.919 187.592 162.327 175.407 155.597 152.539 142.226 139.258 136.726 131.532 131.382 130.961 129.354 128.866 136.593 122.149 117.942 115.895 113.877 101.489 99.7371 98.1308 97.6187 97.486
threshold=7.9632000000000014 12.026750000000002 13.601550000000001 3.7795500000000004 22.501600000000003 15.684100000000003 2.0764500000000004 1.15215 -2.2760499999999992 1.3890500000000003 8.8815500000000025 5.769750000000001 15.586450000000001 17.588250000000006 6.9423000000000004 13.753450000000003 8.3366500000000006 4.3616500000000009 13.517250000000002 13.988550000000002 5.3076500000000006 7.9833500000000006 1.6114500000000003 1.7418500000000001 8.156150000000002 9.0790500000000023 9.5790500000000005 12.473350000000002 -5.7451499999999989 4.5591500000000016
decision_type=2 2 2 2 2 2 2 2 2 2 2 2 2 2 2 2 2 2 2 2 2 2 2 2 2 2 2 2 2 2
left_child=1 2 3 19 5 6 15 18 -8 26 17 23 13 21 -2 -5 24 -9 -6 -1 -21 -11 -23 -7 28 -16 -10 -25 -12 -22
right_child=14 -3 -4 4 7 11 8 10 9 12 16 -13 -14 -15 25 -17 -18 -19 -20 20 29 22 -24 27 -26 -27 -28 -29 -30 -31
leaf_value=0.03277949140500825 0.057949808800832739 0.034443790319543144 0.035934589802510103 0.04532228398692098 0.00070622739449346039 0.028435460930054071 0.025380920739789044 -0.031370905308766968 -0.029916844448754393 0.032993308358359334 0.013198430221004637 0.04527846849598275 0.027291410831617027 -0.020397390707142887 0.024264827950332891 0.013736278891153154 0.021911420473887784 0.02032122587391175 0.025278186842857576 -0.040280000613643487 0.06663121084489762 0.018413040790974545 -0.0097523359625940904 0.0019965641342705189 0.0045009787762320735 0.043027899119449459 0.044270393755101972 0.022654956536179157 -0.018979236338511826 0.016350380022615997
leaf_count=4111 690 5167 3424 560 4834 3469 1215 3505 186 467 712 1089 591 4999 4821 6676 1079 344 1789 362 122 1108 6483 3521 3625 1676 481 2296 5665 4932
internal_value=0 0.268311 0.226703 0.192334 0.126499 0.227958 0.115971 -0.055019 -0.0142583 -0.0706828 -0.169721 0.436639 -0.120426 -0.166349 0.67846 0.353367 -0.0716778 -0.497472 0.168035 0.485448 0.32055 -0.0338047 -0.0965115 0.365633 -0.140807 0.604364 0.638145 0.222194 -0.291114 0.37255
internal_count=79999 72812 67645 64221 54694 33141 22766 21553 15530 14315 14930 10375 13648 13057 7187 7236 11081 3849 6623 9527 5416 8058 7591 9286 10002 6497 667 5817 6377 5054
shrinkage=0.05


Tree=34
num_leaves=31
num_cat=0
split_feature=6 109 174 44 115 2 22 149 123 11 12 0 164 115 36 155 22 89 12 86 154 131 87 134 22 191 177 146 95 89
split_gain=598.574 391.525 319.272 325.642 317.371 310.969 269.477 246.227 221.128 193.948 187.2 165.271 167.052 156.737 154.981 143.005 150.042 137.571 129.333 126.501 119.469 121.845 111.628 120.019 108.603 107.37 111.048 107.249 104.471 101.999
threshold=5.5576500000000006 10.955200000000001 8.2925500000000003 0.94620000000000004 -0.79064999999999985 12.014350000000002 5.9680500000000007 4.8018500000000008 -1.6586999999999998 1.6980500000000003 13.764350000000002 16.866150000000001 4.5485500000000014 1.0725500000000003 -2.1141499999999995 6.5592000000000006 9.6395500000000016 4.7566500000000014 13.988550000000002 -0.09984999999999998 1.8412500000000003 -0.21614999999999998 1.7254000000000003 4.5959500000000011 3.3756500000000007 14.677500000000002 7.6459500000000009 9.6698500000000021 0.51045000000000007 3.7826500000000007
decision_type=2 2 2 2 2 2 2 2 2 2 2 2 2 2 2 2 2 2 2 2 2 2 2 2 2 2 2 2 2 2
left_child=1 -1 -3 -4 -5 7 8 14 -6 10 -10 12 13 19 -2 16 29 28 -16 -9 -15 -22 -23 -24 -21 26 -12 -28 -7 -8
right_child=5 2 3 4 6 17 15 11 9 -11 25 -13 -14 20 18 -17 -18 -19 -20 24 21 22 23 -25 -26 -27 27 -29 -30 -31
leaf_value=0.039881500058940672 0.047319701255921012 0.031797671889629349 0.023903553033944442 0.019735909526267255 0.018457573582017314 0.019934897581617834 -0.0082708695328065403 0.038418820497215657 0.011212899452077704 0.0058009377729174088 0.013689465504117305 0.048019176709687285 0.032768152643143117 0.017393432423536141 0.029323663662126978 0.040059191678393169 0.030610542488994582 0.040107145406069911 0.012773500094976046 -0.017141463553252804 0.032773152409378219 0.034854284784030215 -0.020869697259135116 0.026285582719810654 0.017051893909451155 0.038146917860254696 -0.011365954399077269 -0.027422092150936696 0.041581799847347209 0.011258970186130625
leaf_count=1544 1054 2077 4205 5006 1910 5581 3982 802 1406 4419 617 387 965 1154 4546 657 1024 4258 5883 1053 304 232 5204 327 1708 171 5637 9112 1176 3598
internal_value=0 0.171166 0.135191 0.0963831 0.0404284 0.439512 -0.0269353 0.333789 -0.133468 -0.191371 -0.283979 0.16881 0.125126 0.0555723 0.48107 0.199453 0.132984 0.62405 0.418861 0.309768 -0.0984112 -0.205761 -0.276141 -0.337863 0.127169 -0.354329 -0.375224 -0.413124 0.490993 0.0357433
internal_count=79999 45365 43821 41744 37539 34634 32533 23619 23272 21362 16943 12136 11749 10784 11483 9261 8604 11015 10429 3563 7221 6067 5763 5531 2761 15537 15366 14749 6757 7580
shrinkage=0.05


Tree=35
num_leaves=31
num_cat=0
split_feature=179 53 177 2 76 75 99 127 188 130 133 9 119 192 67 164 139 78 99 76 67 12 71 36 1 192 173 139 43 147
split_gain=560.794 471.782 438.373 400.857 328.706 269.833 242.985 191.99 190.163 176.274 161.257 155.14 148.733 140.301 135.32 132.079 130.661 128.236 125.502 120.275 119.439 120.693 117.151 114.766 120.913 111.383 116.011 107.67 106.676 103.506
threshold=5.1675500000000012 6.7943500000000006 7.2662000000000004 13.588950000000002 0.68565000000000009 7.9059500000000016 -0.67719999999999991 -2.3001499999999995 9.4352500000000017 13.697450000000002 7.0878500000000004 8.1360500000000027 6.6151500000000008 1.42425 11.350500000000002 4.5485500000000014 -3.8494999999999995 7.5363500000000014 3.1026500000000001 -4.0818499999999993 9.4905500000000025 14.022950000000002 1.1293500000000003 -0.57464999999999988 -1.9404999999999999 1.42425 9.3616500000000027 2.8053500000000002 11.668450000000002 5.0592000000000015
decision_type=2 2 2 2 2 2 2 2 2 2 2 2 2 2 2 2 2 2 2 2 2 2 2 2 2 2 2 2 2 2
left_child=1 2 -1 4 8 -6 9 -8 -4 12 16 27 22 -9 -5 23 -2 -13 29 -18 28 -22 25 -10 -25 -7 -27 -3 -21 -15
right_child=10 11 3 14 5 6 7 13 15 -11 -12 17 -14 18 -16 -17 19 -19 -20 20 21 -23 -24 24 -26 26 -28 -29 -30 -31
